{"learner":{"attributes":{"scikit_learn":"{\"_estimator_type\": \"regressor\"}"},"feature_names":["avg_speed_last3","best_speed_last5","speed_trend","days_since_last","distance_pref_win_pct","surface_pref_win_pct","class_change","jockey_win_pct_track","trainer_win_pct_track","jt_combo_win_pct","post_position_bias","weight_carried","morning_line_odds","avg_finish_last5","early_speed_rating","late_speed_rating","condition_pref_win_pct","field_size","layoff_category","class_trend"],"feature_types":["float","int","float","int","float","float","int","int","int","int","float","float","float","float","float","float","float","int","int","int"],"gradient_booster":{"model":{"cats":{"enc":[],"feature_segments":[],"sorted_idx":[]},"gbtree_model_param":{"num_parallel_tree":"1","num_trees":"200"},"iteration_indptr":[0,1,2,3,4,5,6,7,8,9,10,11,12,13,14,15,16,17,18,19,20,21,22,23,24,25,26,27,28,29,30,31,32,33,34,35,36,37,38,39,40,41,42,43,44,45,46,47,48,49,50,51,52,53,54,55,56,57,58,59,60,61,62,63,64,65,66,67,68,69,70,71,72,73,74,75,76,77,78,79,80,81,82,83,84,85,86,87,88,89,90,91,92,93,94,95,96,97,98,99,100,101,102,103,104,105,106,107,108,109,110,111,112,113,114,115,116,117,118,119,120,121,122,123,124,125,126,127,128,129,130,131,132,133,134,135,136,137,138,139,140,141,142,143,144,145,146,147,148,149,150,151,152,153,154,155,156,157,158,159,160,161,162,163,164,165,166,167,168,169,170,171,172,173,174,175,176,177,178,179,180,181,182,183,184,185,186,187,188,189,190,191,192,193,194,195,196,197,198,199,200],"tree_info":[0,0,0,0,0,0,0,0,0,0,0,0,0,0,0,0,0,0,0,0,0,0,0,0,0,0,0,0,0,0,0,0,0,0,0,0,0,0,0,0,0,0,0,0,0,0,0,0,0,0,0,0,0,0,0,0,0,0,0,0,0,0,0,0,0,0,0,0,0,0,0,0,0,0,0,0,0,0,0,0,0,0,0,0,0,0,0,0,0,0,0,0,0,0,0,0,0,0,0,0,0,0,0,0,0,0,0,0,0,0,0,0,0,0,0,0,0,0,0,0,0,0,0,0,0,0,0,0,0,0,0,0,0,0,0,0,0,0,0,0,0,0,0,0,0,0,0,0,0,0,0,0,0,0,0,0,0,0,0,0,0,0,0,0,0,0,0,0,0,0,0,0,0,0,0,0,0,0,0,0,0,0,0,0,0,0,0,0,0,0,0,0,0,0,0,0,0,0,0,0],"trees":[{"base_weights":[8.5381465E-3,7.211433E-1,-9.023551E-1,1.6499639E0,1.4804393E-1,-3.8532093E-1,-1.6076068E0,1.0449188E0,2.4249876E0,9.813106E-3,1.4991236E0,7.269799E-1,-6.8514144E-1,-1.4003422E0,-2.5773258E0,4.0373206E-1,1.895313E0,3.3736854E0,1.4527016E0,-3.7522948E-1,3.5415122E-1,1.2396246E0,4.328763E0,3.2299798E0,3.915177E-1,8.827828E-1,-7.962451E-1,-9.799192E-1,-1.7544247E0,-2.0575588E0,-2.8808165E0,1.0474731E0,-5.021153E-1,2.6196532E0,1.0616318E-1,2.6086998E0,6.643327E0,1.4076103E-1,2.55824E0,-1.4111957E-1,-1.1363313E0,-1.382953E-2,7.1528786E-1,1.5896035E0,-1.9606581E-1,2.5202644E-1,5.6406516E-1,2.1936946E0,5.6591934E-1,-2.2761506E-1,1.9663525E0,3.1350255E-1,7.094109E-1,-1.2518116E0,-5.925893E-1,-1.0475714E0,1.4603446E0,-1.9197818E0,-5.8286273E-1,-2.3674397E0,-9.515854E-1,-2.4176075E0,-3.1525455E0,1.2489488E-1,-4.682414E-2,-6.0019027E-2,3.8428816E-1,1.06401026E-1,3.529063E-1,-1.2521149E-1,1.1165174E-1,1.031755E-1,2.9893458E-1,7.8004974E-1,3.3543485E-1,-1.5650183E-1,9.027197E-2,4.023207E-1,7.5365715E-2,-5.235911E-2,1.1906951E-2,-1.1833954E-2,-1.2831545E-1,2.855416E-2,-6.30916E-2,2.1423559E-1,6.0867544E-2,1.7204799E-1,-2.237012E-1,-1.5040374E-1,2.0465551E-1,2.7754906E-1,6.511376E-2,6.037716E-2,-1.06224775E-1,6.784028E-1,9.630063E-2,-1.4520586E-1,8.389605E-2,-5.455146E-2,-1.3619779E-1,-7.335994E-2,1.2310512E-1,-6.2123418E-2,-1.3348852E-1,7.656516E-2,3.069468E-1,-1.6581024E-1,-2.6119098E-1,2.959194E-1,-1.330291E-1,-2.7775842E-1,-1.58199E-1,-1.6825126E-1,5.3032883E-2,-2.792066E-1,1.0963216E-1,-2.4583061E-1,-3.2867587E-1],"categories":[],"categories_nodes":[],"categories_segments":[],"categories_sizes":[],"default_left":[0,0,0,0,0,0,0,0,0,0,0,0,0,0,0,0,0,0,0,0,0,0,0,0,0,0,0,0,0,0,0,0,0,0,0,0,0,0,0,0,0,0,0,0,0,0,0,0,0,0,0,0,0,0,0,0,0,0,0,0,0,0,0,0,0,0,0,0,0,0,0,0,0,0,0,0,0,0,0,0,0,0,0,0,0,0,0,0,0,0,0,0,0,0,0,0,0,0,0,0,0,0,0,0,0,0,0,0,0,0,0,0,0,0,0,0,0,0,0],"id":0,"left_children":[1,3,5,7,9,11,13,15,17,19,21,23,25,27,29,31,33,35,37,39,41,43,45,47,49,51,53,55,57,59,61,63,65,67,69,71,73,75,77,79,81,83,85,87,89,-1,-1,91,-1,93,95,-1,97,99,101,103,105,107,109,111,113,115,117,-1,-1,-1,-1,-1,-1,-1,-1,-1,-1,-1,-1,-1,-1,-1,-1,-1,-1,-1,-1,-1,-1,-1,-1,-1,-1,-1,-1,-1,-1,-1,-1,-1,-1,-1,-1,-1,-1,-1,-1,-1,-1,-1,-1,-1,-1,-1,-1,-1,-1,-1,-1,-1,-1,-1,-1],"loss_changes":[7.052552E3,3.244696E3,1.7383452E3,1.0881836E3,7.042605E2,9.1859766E2,4.017837E2,7.12437E2,9.3503076E2,4.538382E2,2.5163495E2,4.8993753E2,3.7854724E2,2.4599121E2,4.9914307E1,4.3612488E2,7.280476E2,1.2708022E3,7.3209216E2,2.8778094E2,2.4014453E2,1.6210422E2,5.4588013E1,1.6128314E2,5.0453906E2,5.400448E1,1.8722803E2,1.2749292E2,1.7362207E2,4.367169E1,2.0194946E1,1.340358E2,1.3483456E2,5.621316E2,2.2508975E2,2.4842358E2,3.4300732E2,3.0295093E2,7.213292E2,1.2316229E2,5.6644745E1,1.6570526E2,1.3745065E2,1.3355933E2,1.9080827E2,0E0,0E0,4.3065475E1,0E0,2.5877307E2,6.9920105E2,0E0,3.902056E1,4.7888367E1,3.6142978E2,9.018274E1,2.1124638E1,1.3875073E2,3.0309653E2,2.9109192E1,3.4470596E1,1.1622153E2,4.592041E0,0E0,0E0,0E0,0E0,0E0,0E0,0E0,0E0,0E0,0E0,0E0,0E0,0E0,0E0,0E0,0E0,0E0,0E0,0E0,0E0,0E0,0E0,0E0,0E0,0E0,0E0,0E0,0E0,0E0,0E0,0E0,0E0,0E0,0E0,0E0,0E0,0E0,0E0,0E0,0E0,0E0,0E0,0E0,0E0,0E0,0E0,0E0,0E0,0E0,0E0,0E0,0E0,0E0,0E0,0E0,0E0],"parents":[2147483647,0,0,1,1,2,2,3,3,4,4,5,5,6,6,7,7,8,8,9,9,10,10,11,11,12,12,13,13,14,14,15,15,16,16,17,17,18,18,19,19,20,20,21,21,22,22,23,23,24,24,25,25,26,26,27,27,28,28,29,29,30,30,31,31,32,32,33,33,34,34,35,35,36,36,37,37,38,38,39,39,40,40,41,41,42,42,43,43,44,44,47,47,49,49,50,50,52,52,53,53,54,54,55,55,56,56,57,57,58,58,59,59,60,60,61,61,62,62],"right_children":[2,4,6,8,10,12,14,16,18,20,22,24,26,28,30,32,34,36,38,40,42,44,46,48,50,52,54,56,58,60,62,64,66,68,70,72,74,76,78,80,82,84,86,88,90,-1,-1,92,-1,94,96,-1,98,100,102,104,106,108,110,112,114,116,118,-1,-1,-1,-1,-1,-1,-1,-1,-1,-1,-1,-1,-1,-1,-1,-1,-1,-1,-1,-1,-1,-1,-1,-1,-1,-1,-1,-1,-1,-1,-1,-1,-1,-1,-1,-1,-1,-1,-1,-1,-1,-1,-1,-1,-1,-1,-1,-1,-1,-1,-1,-1,-1,-1,-1,-1],"split_conditions":[1.25E-1,4.3E1,2.1428572E-1,6.2E0,5.6E1,2E0,4.642857E-1,6.7E1,2.1052632E-2,4.2E0,7E0,4.411765E-2,4.1666668E-2,2.8282827E-1,5.483871E-1,2E-2,9.375E-2,5.7636886E-3,7.777778E-2,6.696428E-2,2.8E1,9.677419E-2,1.21E2,2.536232E-1,6.2E0,1.15E2,2.3E1,7.3333335E0,5.5E0,2.2E0,1.22E2,5.6E1,3.783784E-1,4.1666668E-2,9.90991E-2,6.6E0,7.6666665E0,7.5E0,1.1258278E-1,2.5E1,7.8125E-3,1.0606061E-1,-7.4E0,9.7666664E1,1.0958904E-1,2.5202644E-1,5.6406516E-1,8.4E0,5.6591934E-1,3.6E0,1.4E-1,3.1350255E-1,-5.2E0,7.8125E-3,7.2E0,7.4E1,2.2222222E-1,4.5E-1,5.6666665E0,3.4E1,2.5E1,4.8E1,9E0,1.2489488E-1,-4.682414E-2,-6.0019027E-2,3.8428816E-1,1.06401026E-1,3.529063E-1,-1.2521149E-1,1.1165174E-1,1.031755E-1,2.9893458E-1,7.8004974E-1,3.3543485E-1,-1.5650183E-1,9.027197E-2,4.023207E-1,7.5365715E-2,-5.235911E-2,1.1906951E-2,-1.1833954E-2,-1.2831545E-1,2.855416E-2,-6.30916E-2,2.1423559E-1,6.0867544E-2,1.7204799E-1,-2.237012E-1,-1.5040374E-1,2.0465551E-1,2.7754906E-1,6.511376E-2,6.037716E-2,-1.06224775E-1,6.784028E-1,9.630063E-2,-1.4520586E-1,8.389605E-2,-5.455146E-2,-1.3619779E-1,-7.335994E-2,1.2310512E-1,-6.2123418E-2,-1.3348852E-1,7.656516E-2,3.069468E-1,-1.6581024E-1,-2.6119098E-1,2.959194E-1,-1.330291E-1,-2.7775842E-1,-1.58199E-1,-1.6825126E-1,5.3032883E-2,-2.792066E-1,1.0963216E-1,-2.4583061E-1,-3.2867587E-1],"split_indices":[4,1,16,13,17,1,16,17,5,13,13,5,5,4,16,5,16,4,16,4,17,4,11,4,13,11,17,13,13,2,11,17,5,5,16,13,13,13,16,17,16,16,2,0,4,0,0,13,0,13,4,0,2,16,13,1,5,4,13,17,17,17,17,0,0,0,0,0,0,0,0,0,0,0,0,0,0,0,0,0,0,0,0,0,0,0,0,0,0,0,0,0,0,0,0,0,0,0,0,0,0,0,0,0,0,0,0,0,0,0,0,0,0,0,0,0,0,0,0],"split_type":[0,0,0,0,0,0,0,0,0,0,0,0,0,0,0,0,0,0,0,0,0,0,0,0,0,0,0,0,0,0,0,0,0,0,0,0,0,0,0,0,0,0,0,0,0,0,0,0,0,0,0,0,0,0,0,0,0,0,0,0,0,0,0,0,0,0,0,0,0,0,0,0,0,0,0,0,0,0,0,0,0,0,0,0,0,0,0,0,0,0,0,0,0,0,0,0,0,0,0,0,0,0,0,0,0,0,0,0,0,0,0,0,0,0,0,0,0,0,0],"sum_hessian":[1.0863E4,6.095E3,4.768E3,2.325E3,3.77E3,2.752E3,2.016E3,1.307E3,1.018E3,3.421E3,3.49E2,5.84E2,2.168E3,1.663E3,3.53E2,7.46E2,5.61E2,5.14E2,5.04E2,1.615E3,1.806E3,3.21E2,2.8E1,6.8E1,5.16E2,1.43E2,2.025E3,7.62E2,9.01E2,1.33E2,2.2E2,4.36E2,3.1E2,3.99E2,1.62E2,4.18E2,9.6E1,2.31E2,2.73E2,1.236E3,3.79E2,8.95E2,9.11E2,2.58E2,6.3E1,1.3E1,1.5E1,4.9E1,1.9E1,3.71E2,1.45E2,9E0,1.34E2,6.24E2,1.401E3,7.42E2,2E1,7.89E2,1.12E2,1.03E2,3E1,8.5E1,1.35E2,3.85E2,5.1E1,3.04E2,6E0,1.48E2,2.51E2,6.9E1,9.3E1,8.2E1,3.36E2,7E1,2.6E1,7.1E1,1.6E2,1.5E2,1.23E2,5E2,7.36E2,4.8E1,3.31E2,6.03E2,2.92E2,6.2E1,8.49E2,2.5E2,8E0,4E1,2.3E1,3.5E1,1.4E1,1.86E2,1.85E2,2.4E1,1.21E2,7E0,1.27E2,8.5E1,5.39E2,1.301E3,1E2,3E2,4.42E2,1.5E1,5E0,5.75E2,2.14E2,1.9E1,9.3E1,6.6E1,3.7E1,2E1,1E1,7.7E1,8E0,2.5E1,1.1E2],"tree_param":{"num_deleted":"0","num_feature":"20","num_nodes":"119","size_leaf_vector":"1"}},{"base_weights":[-2.6538864E-2,5.730358E-1,-9.2534643E-1,1.5742022E0,1.0885462E-1,1.3770605E0,-1.0285056E0,9.583374E-1,2.3327384E0,4.3169686E-1,-3.5263255E-1,6.773198E-1,3.40386E0,-8.789555E-1,-2.056521E0,1.3997328E0,-6.459487E-2,3.3617208E0,1.50783E0,1.4811607E-1,9.426479E-1,-5.928638E-1,5.812619E-1,8.4012645E-1,-1.323134E-1,-2.3665437E-2,4.250047E0,-9.7563094E-1,3.1352428E-1,-2.1990328E0,-5.421619E-1,8.675093E-1,2.735824E0,1.0067762E0,-6.5738696E-1,2.6044078E0,5.869312E0,9.16386E-1,4.3102927E0,1.7666883E-3,9.319282E-1,1.0166485E0,-1.4196005E0,-4.702532E-1,-1.47317E0,3.7523335E-1,4.2504106E0,3.1904358E-1,6.405919E-1,5.0524926E-1,2.6293015E-1,-3.5344696E-1,-1.1096435E0,2.4573994E0,-2.9619622E-1,-1.2210573E0,-2.3111427E0,-2.075383E0,4.1026822E-1,7.3227495E-2,2.4067855E-1,4.498466E-1,1.0545608E-1,2.516824E-1,-6.9949366E-2,-3.248292E-1,-2.0865127E-2,2.6062638E-2,2.9784653E-1,6.959185E-1,1.4343292E-1,4.8669145E-2,2.7017793E-1,-1.00223295E-1,5.652344E-1,3.8597365E-3,-1.349384E-1,1.4641021E-1,-5.8667667E-2,7.238538E-2,1.5894309E-1,-1.8882732E-1,-6.975207E-2,-5.8476914E-2,5.3034615E-2,-1.6238292E-1,5.8042193E-3,1.727063E-1,-1.8578231E-3,5.234673E-1,2.1196826E-1,-1.2190509E-1,7.817866E-2,-5.0853856E-2,2.4201667E-1,-1.154732E-1,4.4825647E-2,1.0053282E-1,5.614329E-1,9.000717E-2,-1.3442558E-1,-2.0897444E-1,3.1615305E-1,2.6649619E-2,-2.3418064E-1,-2.6784372E-1,3.7011154E-2],"categories":[],"categories_nodes":[],"categories_segments":[],"categories_sizes":[],"default_left":[0,0,0,0,0,0,0,0,0,0,0,0,0,0,0,0,0,0,0,0,0,0,0,0,0,0,0,0,0,0,0,0,0,0,0,0,0,0,0,0,0,0,0,0,0,0,0,0,0,0,0,0,0,0,0,0,0,0,0,0,0,0,0,0,0,0,0,0,0,0,0,0,0,0,0,0,0,0,0,0,0,0,0,0,0,0,0,0,0,0,0,0,0,0,0,0,0,0,0,0,0,0,0,0,0,0,0],"id":1,"left_children":[1,3,5,7,9,11,13,15,17,19,21,23,25,27,29,31,33,35,37,39,41,43,45,47,-1,-1,49,51,53,55,57,59,61,63,65,67,69,71,73,75,77,79,81,83,85,87,89,-1,91,-1,-1,93,95,97,99,101,103,105,-1,-1,-1,-1,-1,-1,-1,-1,-1,-1,-1,-1,-1,-1,-1,-1,-1,-1,-1,-1,-1,-1,-1,-1,-1,-1,-1,-1,-1,-1,-1,-1,-1,-1,-1,-1,-1,-1,-1,-1,-1,-1,-1,-1,-1,-1,-1,-1,-1],"loss_changes":[5.8907314E3,3.0470146E3,1.0403037E3,9.680469E2,6.6776544E2,2.6432257E2,6.419009E2,5.1843286E2,7.8433057E2,3.819509E2,4.1427142E2,4.7033493E1,1.4887244E2,4.2189746E2,1.1340527E2,5.679282E2,2.2104164E2,7.690137E2,8.54635E2,1.9466196E2,1.6593738E2,1.5775568E2,2.841539E2,5.939103E1,0E0,0E0,3.7437378E1,2.8168408E2,3.6019818E2,5.035376E1,3.4322858E2,1.17931335E2,6.709263E2,3.2125256E2,2.597517E2,2.788938E2,4.4920703E2,3.2780255E2,6.473364E2,7.126408E1,2.1663809E2,1.5196649E2,8.497044E0,1.4812424E2,4.138797E1,1.9115155E2,3.0848083E1,0E0,3.298679E1,0E0,0E0,2.597594E2,1.9600513E2,2.73985E2,2.7076834E2,2.0457587E2,3.4927246E1,5.4082886E1,0E0,0E0,0E0,0E0,0E0,0E0,0E0,0E0,0E0,0E0,0E0,0E0,0E0,0E0,0E0,0E0,0E0,0E0,0E0,0E0,0E0,0E0,0E0,0E0,0E0,0E0,0E0,0E0,0E0,0E0,0E0,0E0,0E0,0E0,0E0,0E0,0E0,0E0,0E0,0E0,0E0,0E0,0E0,0E0,0E0,0E0,0E0,0E0,0E0],"parents":[2147483647,0,0,1,1,2,2,3,3,4,4,5,5,6,6,7,7,8,8,9,9,10,10,11,11,12,12,13,13,14,14,15,15,16,16,17,17,18,18,19,19,20,20,21,21,22,22,23,23,26,26,27,27,28,28,29,29,30,30,31,31,32,32,33,33,34,34,35,35,36,36,37,37,38,38,39,39,40,40,41,41,42,42,43,43,44,44,45,45,46,46,48,48,51,51,52,52,53,53,54,54,55,55,56,56,57,57],"right_children":[2,4,6,8,10,12,14,16,18,20,22,24,26,28,30,32,34,36,38,40,42,44,46,48,-1,-1,50,52,54,56,58,60,62,64,66,68,70,72,74,76,78,80,82,84,86,88,90,-1,92,-1,-1,94,96,98,100,102,104,106,-1,-1,-1,-1,-1,-1,-1,-1,-1,-1,-1,-1,-1,-1,-1,-1,-1,-1,-1,-1,-1,-1,-1,-1,-1,-1,-1,-1,-1,-1,-1,-1,-1,-1,-1,-1,-1,-1,-1,-1,-1,-1,-1,-1,-1,-1,-1,-1,-1],"split_conditions":[1.4E-1,1.6E1,2E-2,6.2E0,2.0833334E-2,1.26E2,4.5E-1,9.174312E-2,1.8181818E-2,3.6E1,4.9E1,4.888889E-1,2E1,7.2E0,1.28E2,1.74E2,3.6E0,5.7636886E-3,1.1627907E-1,6.3333335E0,9.1333336E1,8.3666664E1,7.2E0,1.15E2,-1.323134E-1,-2.3665437E-2,6.7E1,1.4285715E-1,1.2E2,1.9354838E-1,5.5E0,6E0,4.3333335E0,1.3157895E-1,3.6666667E0,6.4E0,1.27E2,1.04E1,5.3E1,1.07E2,8.82353E-2,5.3E1,7E-1,6.6E0,2E-1,5.5E1,5.6E1,3.1904358E-1,-5.2E0,5.0524926E-1,2.6293015E-1,1.76E2,1.3E2,5.6E1,8.2E0,2E-1,2E0,2.8E1,4.1026822E-1,7.3227495E-2,2.4067855E-1,4.498466E-1,1.0545608E-1,2.516824E-1,-6.9949366E-2,-3.248292E-1,-2.0865127E-2,2.6062638E-2,2.9784653E-1,6.959185E-1,1.4343292E-1,4.8669145E-2,2.7017793E-1,-1.00223295E-1,5.652344E-1,3.8597365E-3,-1.349384E-1,1.4641021E-1,-5.8667667E-2,7.238538E-2,1.5894309E-1,-1.8882732E-1,-6.975207E-2,-5.8476914E-2,5.3034615E-2,-1.6238292E-1,5.8042193E-3,1.727063E-1,-1.8578231E-3,5.234673E-1,2.1196826E-1,-1.2190509E-1,7.817866E-2,-5.0853856E-2,2.4201667E-1,-1.154732E-1,4.4825647E-2,1.0053282E-1,5.614329E-1,9.000717E-2,-1.3442558E-1,-2.0897444E-1,3.1615305E-1,2.6649619E-2,-2.3418064E-1,-2.6784372E-1,3.7011154E-2],"split_indices":[4,1,5,13,4,11,4,5,5,17,17,4,17,13,11,17,13,4,4,13,0,0,13,11,0,0,17,5,11,5,13,13,13,5,13,13,11,13,17,1,5,17,2,13,15,0,0,0,2,0,0,17,11,17,13,15,17,17,0,0,0,0,0,0,0,0,0,0,0,0,0,0,0,0,0,0,0,0,0,0,0,0,0,0,0,0,0,0,0,0,0,0,0,0,0,0,0,0,0,0,0,0,0,0,0,0,0],"split_type":[0,0,0,0,0,0,0,0,0,0,0,0,0,0,0,0,0,0,0,0,0,0,0,0,0,0,0,0,0,0,0,0,0,0,0,0,0,0,0,0,0,0,0,0,0,0,0,0,0,0,0,0,0,0,0,0,0,0,0,0,0,0,0,0,0,0,0,0,0,0,0,0,0,0,0,0,0,0,0,0,0,0,0,0,0,0,0,0,0,0,0,0,0,0,0,0,0,0,0,0,0,0,0,0,0,0,0],"sum_hessian":[1.0929E4,6.556E3,4.373E3,2.076E3,4.48E3,1.87E2,4.186E3,1.147E3,9.29E2,2.636E3,1.844E3,1.4E2,4.7E1,3.656E3,5.3E2,8.01E2,3.46E2,4.12E2,5.17E2,1.696E3,9.4E2,1.467E3,3.77E2,1.3E2,1E1,9E0,3.8E1,3.382E3,2.74E2,4.84E2,4.6E1,5.74E2,2.27E2,1.23E2,2.23E2,3.18E2,9.4E1,4.28E2,8.9E1,1.43E3,2.66E2,9.12E2,2.8E1,1.289E3,1.78E2,3.58E2,1.9E1,9E0,1.21E2,2.4E1,1.4E1,6E2,2.782E3,6E1,2.14E2,5.1E1,4.33E2,3.5E1,1.1E1,5.29E2,4.5E1,1.1E2,1.17E2,6.5E1,5.8E1,3.2E1,1.91E2,4.4E1,2.74E2,7.5E1,1.9E1,3.46E2,8.2E1,1.8E1,7.1E1,1.393E3,3.7E1,1.97E2,6.9E1,6.05E2,3.07E2,1.6E1,1.2E1,1.157E3,1.32E2,1.62E2,1.6E1,8E1,2.78E2,1.2E1,7E0,8E0,1.13E2,5.69E2,3.1E1,2.704E3,7.8E1,4.2E1,1.8E1,1E2,1.14E2,4.3E1,8E0,5E0,4.28E2,2.8E1,7E0],"tree_param":{"num_deleted":"0","num_feature":"20","num_nodes":"107","size_leaf_vector":"1"}},{"base_weights":[2.9105474E-3,5.7580876E-1,-7.460218E-1,1.3162935E0,1.21375404E-1,-2.8401366E-1,-1.3376302E0,8.141743E-1,1.9615012E0,-2.2523994E-2,1.0780637E0,1.2966417E0,-4.2193723E-1,-1.1798509E0,-2.5818567E0,1.1480347E0,-2.4684714E-1,2.7353208E0,1.2545137E0,2.286178E-1,-4.374708E-1,8.720815E-1,3.303486E0,9.2811173E-1,4.453964E0,-5.6155187E-1,7.503007E-1,-9.6155363E-1,-1.6699941E0,-2.736248E0,-1.965147E0,6.691342E-1,2.936237E0,-7.564947E-1,1.1308863E0,2.1008048E0,5.1825795E0,-2.3256227E-2,2.253113E0,2.4195397E-3,5.020788E-1,-2.8226215E-1,-1.2638246E0,1.0846003E0,-2.4824722E-1,2.3544316E0,4.854822E-1,5.301374E-1,2.0477562E0,5.025608E-1,3.0698562E-1,-6.945245E-1,2.4890046E-1,3.7178307E0,3.9046752E-1,-8.791903E-1,-3.0469328E-1,-1.8261167E0,1.746686E-1,-2.332898E0,-2.887008E0,-2.8800446E-1,-5.645722E-1,4.878505E-2,2.8787076E-1,4.1880718E-1,1.2893943E-1,-3.1337567E-2,-3.2416683E-1,6.367506E-3,2.8429627E-1,1.08786516E-1,2.5915238E-1,-6.429489E-2,5.6961364E-1,-1.4243637E-1,5.725634E-2,3.5525128E-1,8.216769E-2,-1.3448144E-2,7.749753E-2,3.8036704E-2,1.4147785E-1,-5.4550786E-2,1.9400463E-2,1.246108E-1,-1.3487501E-1,6.260749E-2,1.6396654E-1,6.735923E-2,-1.5486567E-1,4.527921E-2,2.748145E-1,6.581328E-2,-2.0506497E-1,1.8156959E-2,2.2981095E-1,-1.9205861E-1,-6.206235E-2,9.712619E-2,-1.0239041E-1,3.0754963E-1,5.205478E-1,1.765467E-2,6.384922E-1,-9.622148E-2,2.2513218E-1,-1.598122E-1,-2.3953132E-1,-1.2736681E-1,2.635086E-1,-1.6348444E-1,-2.6559028E-1,-1.807047E-1,-2.943476E-1,-1.5352432E-1,1.5960903E-1],"categories":[],"categories_nodes":[],"categories_segments":[],"categories_sizes":[],"default_left":[0,0,0,0,0,0,0,0,0,0,0,0,0,0,0,0,0,0,0,0,0,0,0,0,0,0,0,0,0,0,0,0,0,0,0,0,0,0,0,0,0,0,0,0,0,0,0,0,0,0,0,0,0,0,0,0,0,0,0,0,0,0,0,0,0,0,0,0,0,0,0,0,0,0,0,0,0,0,0,0,0,0,0,0,0,0,0,0,0,0,0,0,0,0,0,0,0,0,0,0,0,0,0,0,0,0,0,0,0,0,0,0,0,0,0,0,0],"id":2,"left_children":[1,3,5,7,9,11,13,15,17,19,21,23,25,27,29,31,33,35,37,39,41,43,45,47,49,51,53,55,57,59,61,63,65,67,69,71,73,75,77,79,81,83,85,87,89,91,-1,93,95,-1,-1,97,99,101,103,105,-1,107,109,111,113,-1,115,-1,-1,-1,-1,-1,-1,-1,-1,-1,-1,-1,-1,-1,-1,-1,-1,-1,-1,-1,-1,-1,-1,-1,-1,-1,-1,-1,-1,-1,-1,-1,-1,-1,-1,-1,-1,-1,-1,-1,-1,-1,-1,-1,-1,-1,-1,-1,-1,-1,-1,-1,-1,-1,-1],"loss_changes":[4.6716274E3,2.0757148E3,1.2894543E3,7.584392E2,5.2646234E2,5.784906E2,4.031255E2,4.6822516E2,5.578733E2,3.4659988E2,2.2631775E2,2.437062E2,3.9959198E2,1.9505444E2,1.6712769E1,8.58688E2,2.2343973E2,7.4844385E2,6.8652966E2,1.2816525E2,1.6047786E2,1.0955295E2,5.040634E1,8.446762E1,1.9788513E0,2.3510712E2,2.7618045E2,2.1614172E2,1.6303516E2,4.3928223E0,6.24431E1,3.1663998E2,4.316537E2,2.5446896E2,1.5695361E2,1.910376E2,3.0283618E2,1.9866484E2,5.5880334E2,1.2014594E2,1.0366078E2,1.3262738E2,4.3885864E1,9.7214874E1,8.9752045E1,1.9719284E1,0E0,4.8586636E1,2.2943054E1,0E0,0E0,1.6851538E2,2.8417734E2,1.0746429E1,2.9765765E2,3.2107452E2,0E0,6.37843E1,1.637143E2,8.059113E0,2.5478516E0,0E0,4.649353E1,0E0,0E0,0E0,0E0,0E0,0E0,0E0,0E0,0E0,0E0,0E0,0E0,0E0,0E0,0E0,0E0,0E0,0E0,0E0,0E0,0E0,0E0,0E0,0E0,0E0,0E0,0E0,0E0,0E0,0E0,0E0,0E0,0E0,0E0,0E0,0E0,0E0,0E0,0E0,0E0,0E0,0E0,0E0,0E0,0E0,0E0,0E0,0E0,0E0,0E0,0E0,0E0,0E0,0E0],"parents":[2147483647,0,0,1,1,2,2,3,3,4,4,5,5,6,6,7,7,8,8,9,9,10,10,11,11,12,12,13,13,14,14,15,15,16,16,17,17,18,18,19,19,20,20,21,21,22,22,23,23,24,24,25,25,26,26,27,27,28,28,29,29,30,30,31,31,32,32,33,33,34,34,35,35,36,36,37,37,38,38,39,39,40,40,41,41,42,42,43,43,44,44,45,45,47,47,48,48,51,51,52,52,53,53,54,54,55,55,57,57,58,58,59,59,60,60,62,62],"right_children":[2,4,6,8,10,12,14,16,18,20,22,24,26,28,30,32,34,36,38,40,42,44,46,48,50,52,54,56,58,60,62,64,66,68,70,72,74,76,78,80,82,84,86,88,90,92,-1,94,96,-1,-1,98,100,102,104,106,-1,108,110,112,114,-1,116,-1,-1,-1,-1,-1,-1,-1,-1,-1,-1,-1,-1,-1,-1,-1,-1,-1,-1,-1,-1,-1,-1,-1,-1,-1,-1,-1,-1,-1,-1,-1,-1,-1,-1,-1,-1,-1,-1,-1,-1,-1,-1,-1,-1,-1,-1,-1,-1,-1,-1,-1,-1,-1,-1],"split_conditions":[1.2658228E-1,4.3E1,2.1428572E-1,6.2E0,5.4E1,4.411765E-2,5.483871E-1,9.392265E-2,2.1052632E-2,1.7777778E-2,7E0,1.764706E-1,8.4E1,3.6842105E-1,1E2,1.74E2,1.0769231E-1,7.8125E-3,7.777778E-2,2.9E1,8.3E1,9.677419E-2,1.22E2,1.25E2,2.6041666E-1,6.2E0,1.375E-1,8.4E1,1.28E2,6.1538464E-1,2E0,7.692308E-2,4.3333335E0,1.0725552E-1,1.1904762E-1,1.21E2,1.1E1,7.5E0,1.1111111E-1,6.3333335E0,1.9685039E-1,4.6666665E0,8.5E1,7.6E1,6.4E1,4.2666668E1,4.854822E-1,4.1666668E-2,2.7777778E-2,5.025608E-1,3.0698562E-1,1.8E0,6E-1,1.3043478E-1,2.91E2,7.3333335E0,-3.0469328E-1,8.9E1,4.1025642E-1,7.4E1,1.17E2,-2.8800446E-1,2.2E1,4.878505E-2,2.8787076E-1,4.1880718E-1,1.2893943E-1,-3.1337567E-2,-3.2416683E-1,6.367506E-3,2.8429627E-1,1.08786516E-1,2.5915238E-1,-6.429489E-2,5.6961364E-1,-1.4243637E-1,5.725634E-2,3.5525128E-1,8.216769E-2,-1.3448144E-2,7.749753E-2,3.8036704E-2,1.4147785E-1,-5.4550786E-2,1.9400463E-2,1.246108E-1,-1.3487501E-1,6.260749E-2,1.6396654E-1,6.735923E-2,-1.5486567E-1,4.527921E-2,2.748145E-1,6.581328E-2,-2.0506497E-1,1.8156959E-2,2.2981095E-1,-1.9205861E-1,-6.206235E-2,9.712619E-2,-1.0239041E-1,3.0754963E-1,5.205478E-1,1.765467E-2,6.384922E-1,-9.622148E-2,2.2513218E-1,-1.598122E-1,-2.3953132E-1,-1.2736681E-1,2.635086E-1,-1.6348444E-1,-2.6559028E-1,-1.807047E-1,-2.943476E-1,-1.5352432E-1,1.5960903E-1],"split_indices":[4,1,16,13,17,5,16,16,5,4,13,16,17,4,1,17,4,16,16,17,0,4,11,11,4,13,4,17,11,16,13,16,13,4,16,11,17,13,16,13,16,13,1,1,0,0,0,5,16,0,0,13,2,5,17,13,0,1,5,1,11,0,17,0,0,0,0,0,0,0,0,0,0,0,0,0,0,0,0,0,0,0,0,0,0,0,0,0,0,0,0,0,0,0,0,0,0,0,0,0,0,0,0,0,0,0,0,0,0,0,0,0,0,0,0,0,0],"split_type":[0,0,0,0,0,0,0,0,0,0,0,0,0,0,0,0,0,0,0,0,0,0,0,0,0,0,0,0,0,0,0,0,0,0,0,0,0,0,0,0,0,0,0,0,0,0,0,0,0,0,0,0,0,0,0,0,0,0,0,0,0,0,0,0,0,0,0,0,0,0,0,0,0,0,0,0,0,0,0,0,0,0,0,0,0,0,0,0,0,0,0,0,0,0,0,0,0,0,0,0,0,0,0,0,0,0,0,0,0,0,0,0,0,0,0,0,0],"sum_hessian":[1.0886E4,6.168E3,4.718E3,2.345E3,3.823E3,2.65E3,2.068E3,1.32E3,1.025E3,3.324E3,4.99E2,2.12E2,2.438E3,1.837E3,2.31E2,1.004E3,3.16E2,4.88E2,5.37E2,2.071E3,1.253E3,4.58E2,4.1E1,1.91E2,2.1E1,2.179E3,2.59E2,1.273E3,5.64E2,1.82E2,4.9E1,7.93E2,2.11E2,2.31E2,8.5E1,3.89E2,9.9E1,2.36E2,3.01E2,1.134E3,9.37E2,1.056E3,1.97E2,3.85E2,7.3E1,2.7E1,1.4E1,1.42E2,4.9E1,1.3E1,8E0,1.872E3,3.07E2,2.7E1,2.32E2,1.226E3,4.7E1,5.2E2,4.4E1,5.4E1,1.28E2,2.9E1,2E1,7.34E2,5.9E1,1.19E2,9.2E1,1.97E2,3.4E1,5.3E1,3.2E1,1.28E2,2.61E2,8E0,9.1E1,7E1,1.66E2,1.57E2,1.44E2,9.64E2,1.7E2,8.28E2,1.09E2,6.8E2,3.76E2,6E0,1.91E2,2.12E2,1.73E2,4.3E1,3E1,5E0,2.2E1,1.36E2,6E0,6E0,4.3E1,1.05E2,1.767E3,1.96E2,1.11E2,2.1E1,6E0,2.25E2,7E0,1.195E3,3.1E1,3.74E2,1.46E2,2.8E1,1.6E1,1.9E1,3.5E1,8E0,1.2E2,1.4E1,6E0],"tree_param":{"num_deleted":"0","num_feature":"20","num_nodes":"117","size_leaf_vector":"1"}},{"base_weights":[-3.0664164E-3,5.220644E-1,-6.9516695E-1,1.3031934E0,1.5669923E-1,-9.040863E-2,-9.9167484E-1,1.1674339E0,4.0394073E0,2.7649589E-2,1.0319518E0,-2.3268308E-1,2.0417068E0,-8.416476E-1,-1.8349129E0,1.8943161E0,6.7751E-1,5.7786627E0,1.692579E0,2.3620564E-1,-3.433997E-1,1.2455709E0,-2.7703625E-1,8.525677E-1,-4.1163257E-1,1.5082012E0,3.9006693E0,-1.1496592E0,-4.9931595E-1,-1.6165559E0,-2.4351268E0,1.5613077E0,3.8418446E0,-1.2648723E-3,1.1057982E0,2.0198154E0,6.7150316E0,-2.8592718E-1,3.0621395E0,2.8375886E-2,5.006707E-1,-3.7626103E-1,3.6192298E-1,1.6450033E0,5.445359E-1,-8.381277E-1,1.7525879E0,4.122117E-1,2.333512E0,-4.591082E-1,2.858042E0,1.9348568E0,-1.11457236E-1,2.5217232E-1,5.8262414E-1,-2.9553902E-1,-1.2929462E0,-5.84958E-1,1.1815213E0,-1.7348135E0,-1.861902E-1,-2.600655E0,-4.8323076E-2,1.4282173E-1,3.2356092E-1,4.7262034E-1,4.7596734E-2,5.939979E-2,-4.923514E-2,1.4926012E-1,-6.0719114E-2,3.2438853E-1,2.5509825E-2,7.020125E-1,4.1866907E-1,2.5507757E-2,3.9871985E-1,4.284934E-2,-1.133529E-2,1.07507266E-1,3.62299E-2,-2.7414763E-2,-1.4203621E-1,1.04432605E-1,2.4408363E-1,3.71437E-3,2.5879356E-1,1.1266134E-1,-1.4473401E-1,9.081245E-2,2.0287707E-1,3.5594262E-3,1.3169388E-1,-2.9794067E-2,2.9645917E-1,-3.9591026E-2,-1.8292579E-1,1.3570699E-1,4.2082286E-1,1.2710615E-1,3.8857588E-1,-1.270601E-1,4.7740273E-2,3.406477E-2,-1.1380198E-1,-1.6411321E-1,-1.0538586E-1,-4.768393E-2,-1.6521095E-1,2.3978487E-1,-2.1792188E-1,-1.5680513E-1,-2.9175296E-1,-1.7528087E-1,3.949457E-1,-2.6690862E-1,-1.4981227E-1],"categories":[],"categories_nodes":[],"categories_segments":[],"categories_sizes":[],"default_left":[0,0,0,0,0,0,0,0,0,0,0,0,0,0,0,0,0,0,0,0,0,0,0,0,0,0,0,0,0,0,0,0,0,0,0,0,0,0,0,0,0,0,0,0,0,0,0,0,0,0,0,0,0,0,0,0,0,0,0,0,0,0,0,0,0,0,0,0,0,0,0,0,0,0,0,0,0,0,0,0,0,0,0,0,0,0,0,0,0,0,0,0,0,0,0,0,0,0,0,0,0,0,0,0,0,0,0,0,0,0,0,0,0,0,0,0,0],"id":3,"left_children":[1,3,5,7,9,11,13,15,17,19,21,23,25,27,29,31,33,35,37,39,41,43,45,47,49,51,53,55,57,59,61,63,65,67,69,71,73,-1,75,77,79,81,-1,83,85,87,89,91,93,95,97,99,101,-1,-1,103,105,107,109,111,113,115,-1,-1,-1,-1,-1,-1,-1,-1,-1,-1,-1,-1,-1,-1,-1,-1,-1,-1,-1,-1,-1,-1,-1,-1,-1,-1,-1,-1,-1,-1,-1,-1,-1,-1,-1,-1,-1,-1,-1,-1,-1,-1,-1,-1,-1,-1,-1,-1,-1,-1,-1,-1,-1,-1,-1],"loss_changes":[3.963712E3,1.7695446E3,8.4359033E2,7.293037E2,4.7730243E2,4.703573E2,3.978435E2,6.6964087E2,3.698203E2,2.851659E2,1.521814E2,2.8253094E2,9.031839E1,2.8222144E2,5.8448486E1,4.855974E2,3.27633E2,1.7297925E2,2.643509E2,1.2964516E2,1.7402994E2,1.2987177E2,8.915685E1,1.3337952E2,1.9503905E2,5.3425446E1,4.10683E1,1.7230225E2,1.8379611E2,5.921826E1,3.9129944E1,1.3999756E2,3.2518127E2,1.280387E2,4.5875543E2,2.5094131E1,3.006836E0,0E0,8.207727E1,7.501677E1,8.2111755E1,1.3991821E2,0E0,1.3942847E2,1.7719754E2,7.4644226E1,2.122467E0,5.447088E1,7.89341E1,1.05868866E2,3.0767792E1,7.405597E1,1.2210335E1,0E0,0E0,1.09726585E2,9.8832886E1,1.3893625E2,2.5866656E2,5.9525635E1,1.8833412E2,4.6778564E0,0E0,0E0,0E0,0E0,0E0,0E0,0E0,0E0,0E0,0E0,0E0,0E0,0E0,0E0,0E0,0E0,0E0,0E0,0E0,0E0,0E0,0E0,0E0,0E0,0E0,0E0,0E0,0E0,0E0,0E0,0E0,0E0,0E0,0E0,0E0,0E0,0E0,0E0,0E0,0E0,0E0,0E0,0E0,0E0,0E0,0E0,0E0,0E0,0E0,0E0,0E0,0E0,0E0,0E0,0E0],"parents":[2147483647,0,0,1,1,2,2,3,3,4,4,5,5,6,6,7,7,8,8,9,9,10,10,11,11,12,12,13,13,14,14,15,15,16,16,17,17,18,18,19,19,20,20,21,21,22,22,23,23,24,24,25,25,26,26,27,27,28,28,29,29,30,30,31,31,32,32,33,33,34,34,35,35,36,36,38,38,39,39,40,40,41,41,43,43,44,44,45,45,46,46,47,47,48,48,49,49,50,50,51,51,52,52,55,55,56,56,57,57,58,58,59,59,60,60,61,61],"right_children":[2,4,6,8,10,12,14,16,18,20,22,24,26,28,30,32,34,36,38,40,42,44,46,48,50,52,54,56,58,60,62,64,66,68,70,72,74,-1,76,78,80,82,-1,84,86,88,90,92,94,96,98,100,102,-1,-1,104,106,108,110,112,114,116,-1,-1,-1,-1,-1,-1,-1,-1,-1,-1,-1,-1,-1,-1,-1,-1,-1,-1,-1,-1,-1,-1,-1,-1,-1,-1,-1,-1,-1,-1,-1,-1,-1,-1,-1,-1,-1,-1,-1,-1,-1,-1,-1,-1,-1,-1,-1,-1,-1,-1,-1,-1,-1,-1,-1],"split_conditions":[1.2658228E-1,1.6E1,1.5972222E-1,1.1764706E-1,5.4E1,1.76E2,4.6153846E-1,1.6666668E-2,1.02564104E-1,1.6260162E-2,9.677419E-2,8.333334E-3,2.91E2,3.3E1,6.666667E-1,5.7636886E-3,8.4E1,5.3E1,1.18644066E-1,2.9E1,1.31E2,2E-1,1.23E2,1.26E2,1.5833333E-1,1.4285715E-1,4.411765E-2,4.1333332E1,4.4117647E-1,1.28E2,5.5E1,1.98E2,1.27E2,2.7E1,1.0169491E-1,1.22E2,1.2328767E-1,-2.8592718E-1,8.4E1,5.6E1,4.9E1,6E-1,3.6192298E-1,6.5E1,5.4054055E-2,6E1,1.116208E-1,8E-1,2E1,1.11E2,6.9E1,1.4137931E-1,1.388889E-1,2.5217232E-1,5.8262414E-1,2.536232E-1,1.8E1,9.7E1,1.3E0,5.6E1,2.6E1,9.8666664E1,-4.8323076E-2,1.4282173E-1,3.2356092E-1,4.7262034E-1,4.7596734E-2,5.939979E-2,-4.923514E-2,1.4926012E-1,-6.0719114E-2,3.2438853E-1,2.5509825E-2,7.020125E-1,4.1866907E-1,2.5507757E-2,3.9871985E-1,4.284934E-2,-1.133529E-2,1.07507266E-1,3.62299E-2,-2.7414763E-2,-1.4203621E-1,1.04432605E-1,2.4408363E-1,3.71437E-3,2.5879356E-1,1.1266134E-1,-1.4473401E-1,9.081245E-2,2.0287707E-1,3.5594262E-3,1.3169388E-1,-2.9794067E-2,2.9645917E-1,-3.9591026E-2,-1.8292579E-1,1.3570699E-1,4.2082286E-1,1.2710615E-1,3.8857588E-1,-1.270601E-1,4.7740273E-2,3.406477E-2,-1.1380198E-1,-1.6411321E-1,-1.0538586E-1,-4.768393E-2,-1.6521095E-1,2.3978487E-1,-2.1792188E-1,-1.5680513E-1,-2.9175296E-1,-1.7528087E-1,3.949457E-1,-2.6690862E-1,-1.4981227E-1],"split_indices":[4,1,5,4,17,17,4,5,5,4,4,5,17,17,4,4,17,17,5,17,11,14,11,11,5,5,5,0,5,11,17,17,11,17,4,11,4,0,17,1,1,14,0,17,4,1,4,2,17,17,1,5,4,0,0,4,17,1,2,17,17,0,0,0,0,0,0,0,0,0,0,0,0,0,0,0,0,0,0,0,0,0,0,0,0,0,0,0,0,0,0,0,0,0,0,0,0,0,0,0,0,0,0,0,0,0,0,0,0,0,0,0,0,0,0,0,0],"split_type":[0,0,0,0,0,0,0,0,0,0,0,0,0,0,0,0,0,0,0,0,0,0,0,0,0,0,0,0,0,0,0,0,0,0,0,0,0,0,0,0,0,0,0,0,0,0,0,0,0,0,0,0,0,0,0,0,0,0,0,0,0,0,0,0,0,0,0,0,0,0,0,0,0,0,0,0,0,0,0,0,0,0,0,0,0,0,0,0,0,0,0,0,0,0,0,0,0,0,0,0,0,0,0,0,0,0,0,0,0,0,0,0,0,0,0,0,0],"sum_hessian":[1.0904E4,6.2E3,4.704E3,1.975E3,4.225E3,1.548E3,3.156E3,1.883E3,9.2E1,3.683E3,5.42E2,1.452E3,9.6E1,2.681E3,4.75E2,7.57E2,1.126E3,5.2E1,4E1,2.358E3,1.325E3,4.66E2,7.6E1,2.05E2,1.247E3,7.6E1,2E1,1.41E3,1.271E3,3.51E2,1.24E2,6.48E2,1.09E2,4.36E2,6.9E2,1.1E1,4.1E1,9E0,3.1E1,1.321E3,1.037E3,1.315E3,1E1,2.96E2,1.7E2,6E1,1.6E1,1.59E2,4.6E1,1.23E3,1.7E1,6E1,1.6E1,1.3E1,7E0,2.03E2,1.207E3,1.21E3,6.1E1,3.24E2,2.7E1,1.14E2,1E1,6.02E2,4.6E1,8.6E1,2.3E1,1.97E2,2.39E2,5.63E2,1.27E2,6E0,5E0,3.5E1,6E0,8E0,2.3E1,3.45E2,9.76E2,2E2,8.37E2,1.199E3,1.16E2,1.7E2,1.26E2,1.37E2,3.3E1,1.4E1,4.6E1,5E0,1.1E1,1.13E2,4.6E1,9E0,3.7E1,1.177E3,5.3E1,9E0,8E0,4.6E1,1.4E1,5E0,1.1E1,1.16E2,8.7E1,4.89E2,7.18E2,1.1E3,1.1E2,4.5E1,1.6E1,2.86E2,3.8E1,2E1,7E0,1.06E2,8E0],"tree_param":{"num_deleted":"0","num_feature":"20","num_nodes":"117","size_leaf_vector":"1"}},{"base_weights":[-1.4235462E-2,4.877487E-1,-6.403085E-1,2.261562E-1,1.4926881E0,-2.6277536E-1,-1.1398636E0,8.018319E-1,2.5645476E-2,1.5593355E0,-1.9574152E0,4.2048794E-1,-4.4399896E-1,-9.655796E-1,-1.9439595E0,1.0906627E0,-1.7261612E-1,2.3631288E-1,-3.417379E-1,1.4247851E0,3.7494516E0,-6.264645E-2,-2.863347E-1,1.1859464E-1,1.5692099E0,8.227602E-2,-5.860675E-1,-4.464004E-1,-1.1727157E0,-1.5907702E0,-2.1759343E0,4.2502767E-1,2.244739E0,-2.9670802E-1,3.2447633E-1,2.690738E-1,-1.1555309E0,-2.3948939E-1,-1.3569944E0,1.3695743E0,4.1958485E0,2.5074236E0,5.231118E-1,6.9589937E-1,-3.645065E-1,-3.7106466E-1,2.4728868E0,-5.5629927E-1,4.3771636E-1,-4.5635492E-1,-1.3463613E0,-2.8321117E-3,-1.0259551E0,-1.201382E0,3.970485E-1,-1.9116504E0,-6.605584E-1,-2.5175208E-1,-1.9422129E0,3.2736473E-2,2.9982162E-1,5.0659984E-2,2.5552976E-1,2.5423357E-1,-4.5935784E-2,1.6406598E-2,6.7078345E-2,-1.7609404E-1,-3.7584744E-2,-7.546145E-3,-1.0245126E-1,-1.6038056E-1,5.9101768E-2,1.5928236E-1,4.5441825E-2,7.0911205E-1,6.559297E-2,3.4771463E-1,6.594093E-2,1.1386526E-1,-5.3409882E-2,-1.4670402E-1,4.0526025E-2,1.716704E-1,-1.7474495E-1,5.7476014E-1,1.7141573E-1,-9.934683E-2,9.94735E-2,3.0994436E-2,5.030709E-1,-1.7332168E-1,-3.9195586E-2,-1.998549E-1,-8.952383E-2,8.2224116E-2,-4.288056E-2,-2.4874909E-1,-7.0273034E-2,-1.7566898E-1,-1.11244634E-1,-2.088288E-1,-4.194358E-2,-1.9596696E-2,-2.2390437E-1,-2.1006237E-1,-2.9400354E-2],"categories":[],"categories_nodes":[],"categories_segments":[],"categories_sizes":[],"default_left":[0,0,0,0,0,0,0,0,0,0,0,0,0,0,0,0,0,0,0,0,0,0,0,0,0,0,0,0,0,0,0,0,0,0,0,0,0,0,0,0,0,0,0,0,0,0,0,0,0,0,0,0,0,0,0,0,0,0,0,0,0,0,0,0,0,0,0,0,0,0,0,0,0,0,0,0,0,0,0,0,0,0,0,0,0,0,0,0,0,0,0,0,0,0,0,0,0,0,0,0,0,0,0,0,0,0,0],"id":4,"left_children":[1,3,5,7,9,11,13,15,17,19,21,23,25,27,29,31,33,35,37,39,41,-1,-1,43,45,47,49,51,53,55,57,59,61,63,-1,65,67,69,71,73,75,77,-1,79,81,83,85,87,89,91,93,95,97,99,-1,101,103,-1,105,-1,-1,-1,-1,-1,-1,-1,-1,-1,-1,-1,-1,-1,-1,-1,-1,-1,-1,-1,-1,-1,-1,-1,-1,-1,-1,-1,-1,-1,-1,-1,-1,-1,-1,-1,-1,-1,-1,-1,-1,-1,-1,-1,-1,-1,-1,-1,-1],"loss_changes":[3.4083513E3,1.581965E3,9.0987744E2,5.513845E2,2.8886792E2,3.4070117E2,2.891958E2,3.474984E2,2.7437112E2,3.5416846E2,2.7144226E1,1.9991257E2,1.6259189E2,1.8326355E2,2.6771118E1,7.303662E2,1.2097429E2,1.0304343E2,1.3379558E2,1.703479E2,1.1570227E2,0E0,0E0,1.27988304E2,2.1132336E2,1.0533312E2,1.6822247E2,1.2570533E2,1.8479077E2,4.3510223E1,1.2674438E1,1.5105817E2,1.8655383E2,1.2769281E2,0E0,9.2776184E1,2.3883598E1,1.5122243E2,5.7681213E1,2.3014429E2,2.2082727E2,6.938962E1,0E0,1.1442655E2,2.1276797E2,1.150692E2,1.9388669E2,1.1354687E2,1.7332382E2,1.1970346E2,7.1470825E1,9.805827E1,9.840175E1,5.8050537E1,0E0,2.8381622E1,2.8895254E1,0E0,3.4630066E1,0E0,0E0,0E0,0E0,0E0,0E0,0E0,0E0,0E0,0E0,0E0,0E0,0E0,0E0,0E0,0E0,0E0,0E0,0E0,0E0,0E0,0E0,0E0,0E0,0E0,0E0,0E0,0E0,0E0,0E0,0E0,0E0,0E0,0E0,0E0,0E0,0E0,0E0,0E0,0E0,0E0,0E0,0E0,0E0,0E0,0E0,0E0,0E0],"parents":[2147483647,0,0,1,1,2,2,3,3,4,4,5,5,6,6,7,7,8,8,9,9,10,10,11,11,12,12,13,13,14,14,15,15,16,16,17,17,18,18,19,19,20,20,23,23,24,24,25,25,26,26,27,27,28,28,29,29,30,30,31,31,32,32,33,33,35,35,36,36,37,37,38,38,39,39,40,40,41,41,43,43,44,44,45,45,46,46,47,47,48,48,49,49,50,50,51,51,52,52,53,53,55,55,56,56,58,58],"right_children":[2,4,6,8,10,12,14,16,18,20,22,24,26,28,30,32,34,36,38,40,42,-1,-1,44,46,48,50,52,54,56,58,60,62,64,-1,66,68,70,72,74,76,78,-1,80,82,84,86,88,90,92,94,96,98,100,-1,102,104,-1,106,-1,-1,-1,-1,-1,-1,-1,-1,-1,-1,-1,-1,-1,-1,-1,-1,-1,-1,-1,-1,-1,-1,-1,-1,-1,-1,-1,-1,-1,-1,-1,-1,-1,-1,-1,-1,-1,-1,-1,-1,-1,-1,-1,-1,-1,-1,-1,-1],"split_conditions":[1.25E-1,6.6E0,2.1276596E-1,1.6E1,1.34E1,2E0,4.642857E-1,9.392265E-2,2.3255814E-2,1.08E1,5.7636886E-3,8E0,3.2258064E-2,2.5E-1,5.714286E-1,5.479452E-2,6.3333335E0,9.8666664E1,6E-1,1.2068965E-1,3.3333335E-2,-6.264645E-2,-2.863347E-1,3.6E0,1E-1,6.3666668E1,8.4666664E1,7.8E1,9.4E0,2.2E0,3.846154E-1,7.5E-2,7.8125E-3,2.6E0,3.2447633E-1,1.3675214E-1,1E-1,8.8E1,1.8584071E-1,1.1258278E-1,1.2230216E-1,1.18E1,5.231118E-1,1.5073529E-1,5.2E0,1.3333334E-1,1.4E-1,3.7E0,7.5E0,5E1,1.4720812E-1,-1.5E0,7.2E1,-3.7E0,3.970485E-1,6E-1,2.5E-1,-2.5175208E-1,5E0,3.2736473E-2,2.9982162E-1,5.0659984E-2,2.5552976E-1,2.5423357E-1,-4.5935784E-2,1.6406598E-2,6.7078345E-2,-1.7609404E-1,-3.7584744E-2,-7.546145E-3,-1.0245126E-1,-1.6038056E-1,5.9101768E-2,1.5928236E-1,4.5441825E-2,7.0911205E-1,6.559297E-2,3.4771463E-1,6.594093E-2,1.1386526E-1,-5.3409882E-2,-1.4670402E-1,4.0526025E-2,1.716704E-1,-1.7474495E-1,5.7476014E-1,1.7141573E-1,-9.934683E-2,9.94735E-2,3.0994436E-2,5.030709E-1,-1.7332168E-1,-3.9195586E-2,-1.998549E-1,-8.952383E-2,8.2224116E-2,-4.288056E-2,-2.4874909E-1,-7.0273034E-2,-1.7566898E-1,-1.11244634E-1,-2.088288E-1,-4.194358E-2,-1.9596696E-2,-2.2390437E-1,-2.1006237E-1,-2.9400354E-2],"split_indices":[4,13,16,0,13,1,16,16,4,13,4,13,16,4,16,4,13,0,14,4,16,0,0,13,16,0,0,1,13,2,4,16,16,13,0,16,2,1,16,16,4,13,0,16,13,4,4,2,13,1,16,2,0,2,0,14,14,0,13,0,0,0,0,0,0,0,0,0,0,0,0,0,0,0,0,0,0,0,0,0,0,0,0,0,0,0,0,0,0,0,0,0,0,0,0,0,0,0,0,0,0,0,0,0,0,0,0],"split_type":[0,0,0,0,0,0,0,0,0,0,0,0,0,0,0,0,0,0,0,0,0,0,0,0,0,0,0,0,0,0,0,0,0,0,0,0,0,0,0,0,0,0,0,0,0,0,0,0,0,0,0,0,0,0,0,0,0,0,0,0,0,0,0,0,0,0,0,0,0,0,0,0,0,0,0,0,0,0,0,0,0,0,0,0,0,0,0,0,0,0,0,0,0,0,0,0,0,0,0,0,0,0,0,0,0,0,0],"sum_hessian":[1.0843E4,6.018E3,4.825E3,4.776E3,1.242E3,2.749E3,2.076E3,1.233E3,3.543E3,1.219E3,2.3E1,5.76E2,2.173E3,1.708E3,3.68E2,9.51E2,2.82E2,2.252E3,1.291E3,1.15E3,6.9E1,1E1,1.3E1,4.57E2,1.19E2,4.62E2,1.711E3,4.88E2,1.22E3,1.49E2,2.19E2,6.04E2,3.47E2,2.73E2,9E0,2.201E3,5.1E1,1.174E3,1.17E2,1.129E3,2.1E1,3.9E1,3E1,2.08E2,2.49E2,3.8E1,8.1E1,1.65E2,2.97E2,1.463E3,2.48E2,2.77E2,2.11E2,1.214E3,6E0,1.1E2,3.9E1,8.5E1,1.34E2,5.83E2,2.1E1,5.3E1,2.94E2,1.4E1,2.59E2,1.746E3,4.55E2,2.8E1,2.3E1,9.72E2,2.02E2,1.04E2,1.3E1,9.07E2,2.22E2,1.1E1,1E1,2.5E1,1.4E1,1.53E2,5.5E1,1.02E2,1.47E2,1.5E1,2.3E1,1.4E1,6.7E1,1.29E2,3.6E1,2.9E2,7E0,6.9E1,1.394E3,1E2,1.48E2,9.4E1,1.83E2,3.7E1,1.74E2,1.65E2,1.049E3,9.8E1,1.2E1,3.1E1,8E0,1.22E2,1.2E1],"tree_param":{"num_deleted":"0","num_feature":"20","num_nodes":"107","size_leaf_vector":"1"}},{"base_weights":[9.960256E-3,4.2235723E-1,-6.2082285E-1,1.1289654E0,7.752518E-2,-3.39305E-1,-1.0637232E0,9.3471956E-1,2.3246915E0,-6.727186E-3,9.4331527E-1,-4.161446E-1,1.242726E0,-1.0847639E0,4.997912E-1,1.4804994E0,5.457329E-1,3.7863705E0,1.2909789E0,2.5653532E-1,-2.8560582E-1,7.113158E-1,3.2371066E0,3.3866486E-1,-5.6927854E-1,2.4505358E0,-2.4609163E-1,-6.10849E-1,-1.2970479E0,9.146281E-1,2.2067847E0,1.0803069E0,-2.8226107E-1,2.2130842E0,5.031167E0,-7.7760436E-2,2.5861754E0,-9.2877716E-2,4.7346574E-1,-1.2746347E0,-1.7573853E-1,-1.7274232E0,8.3722246E-1,3.6704284E-1,1.743427E-1,-3.3370844E-1,8.491603E-1,-5.37752E-1,-2.4157817E0,3.0178132E0,-1.6035955E-1,3.9011428E-1,-1.0185711E0,1.5983028E0,-7.1144956E-1,-1.763638E-2,-1.357185E0,4.7761884E-2,1.9726926E-1,2.770547E-1,1.6594057E-1,3.2171022E-2,1.7418373E-1,1.6835348E-1,-7.8578226E-2,2.946461E-1,-3.6802355E-3,3.0183354E-1,6.3321656E-1,-5.2506573E-2,5.1732105E-1,5.007584E-1,-2.8955981E-2,-5.6634575E-2,1.3701394E-2,4.37328E-2,3.7333462E-1,-1.4466582E-1,8.965884E-3,5.6489427E-2,-2.74346E-2,-2.7209026E-1,-6.6054955E-2,3.762516E-3,1.2673303E-1,-8.509407E-2,-2.5821791E-3,7.1025245E-2,3.4639484E-1,-5.934755E-2,7.379006E-2,-2.5770694E-1,-1.4024788E-1,3.592257E-1,1.2135767E-1,-2.4344679E-2,-3.086718E-1,3.1904757E-1,-7.9056956E-2,-5.8098923E-2,-1.9251285E-1,-2.0810221E-1,9.308823E-2,-1.2936316E-1,-2.4064767E-1],"categories":[],"categories_nodes":[],"categories_segments":[],"categories_sizes":[],"default_left":[0,0,0,0,0,0,0,0,0,0,0,0,0,0,0,0,0,0,0,0,0,0,0,0,0,0,0,0,0,0,0,0,0,0,0,0,0,0,0,0,0,0,0,0,0,0,0,0,0,0,0,0,0,0,0,0,0,0,0,0,0,0,0,0,0,0,0,0,0,0,0,0,0,0,0,0,0,0,0,0,0,0,0,0,0,0,0,0,0,0,0,0,0,0,0,0,0,0,0,0,0,0,0,0,0],"id":5,"left_children":[1,3,5,7,9,11,13,15,17,19,21,23,25,27,-1,29,31,33,35,37,39,41,43,45,47,49,51,53,55,57,59,61,63,65,67,69,71,73,75,77,79,81,83,-1,-1,85,87,89,91,93,-1,-1,95,97,99,101,103,-1,-1,-1,-1,-1,-1,-1,-1,-1,-1,-1,-1,-1,-1,-1,-1,-1,-1,-1,-1,-1,-1,-1,-1,-1,-1,-1,-1,-1,-1,-1,-1,-1,-1,-1,-1,-1,-1,-1,-1,-1,-1,-1,-1,-1,-1,-1,-1],"loss_changes":[2.85054E3,1.6144114E3,5.3977185E2,5.0253833E2,3.2490277E2,3.226581E2,2.200719E2,3.9640735E2,4.5293164E2,2.9815152E2,2.0789993E2,2.923965E2,2.2178267E2,1.6802197E2,0E0,3.1772705E2,4.8453568E2,2.3366833E2,3.1752985E2,1.5838666E2,2.1405731E2,1.11985504E2,1.6901642E1,1.4684834E2,1.2106653E2,1.6122693E2,1.8337819E2,1.1692508E2,8.9072876E1,2.020444E2,1.0032373E2,3.331598E2,4.2694543E2,9.415933E1,1.615769E2,2.0940952E2,6.420764E2,8.726352E1,1.5021771E2,4.636377E1,1.2985968E2,1.7281212E1,1.17914505E2,0E0,0E0,2.9439074E1,8.580087E1,1.4743933E2,2.1058807E0,5.7826416E1,0E0,0E0,7.619595E1,9.000275E1,7.789163E1,1.0566666E2,7.06416E1,0E0,0E0,0E0,0E0,0E0,0E0,0E0,0E0,0E0,0E0,0E0,0E0,0E0,0E0,0E0,0E0,0E0,0E0,0E0,0E0,0E0,0E0,0E0,0E0,0E0,0E0,0E0,0E0,0E0,0E0,0E0,0E0,0E0,0E0,0E0,0E0,0E0,0E0,0E0,0E0,0E0,0E0,0E0,0E0,0E0,0E0,0E0,0E0],"parents":[2147483647,0,0,1,1,2,2,3,3,4,4,5,5,6,6,7,7,8,8,9,9,10,10,11,11,12,12,13,13,15,15,16,16,17,17,18,18,19,19,20,20,21,21,22,22,23,23,24,24,25,25,26,26,27,27,28,28,29,29,30,30,31,31,32,32,33,33,34,34,35,35,36,36,37,37,38,38,39,39,40,40,41,41,42,42,45,45,46,46,47,47,48,48,49,49,52,52,53,53,54,54,55,55,56,56],"right_children":[2,4,6,8,10,12,14,16,18,20,22,24,26,28,-1,30,32,34,36,38,40,42,44,46,48,50,52,54,56,58,60,62,64,66,68,70,72,74,76,78,80,82,84,-1,-1,86,88,90,92,94,-1,-1,96,98,100,102,104,-1,-1,-1,-1,-1,-1,-1,-1,-1,-1,-1,-1,-1,-1,-1,-1,-1,-1,-1,-1,-1,-1,-1,-1,-1,-1,-1,-1,-1,-1,-1,-1,-1,-1,-1,-1,-1,-1,-1,-1,-1,-1,-1,-1,-1,-1,-1,-1],"split_conditions":[1.4516129E-1,1.4E1,2.6666668E-1,2.25E2,5.6E1,7.5E0,9.4E0,1.8181818E-2,5.0847456E-2,2.0833334E-2,6.6E0,7.070707E-2,2.0408164E-1,2.5925925E-1,4.997912E-1,6.3333335E0,1.24E2,1.923077E-2,9.90991E-2,4.2E0,2.2E0,1.8333334E1,9.090909E-2,1.8699187E-1,6.363636E-1,1E-1,-2E0,-8.9E0,2.3E-1,1.26E2,8E0,7.777778E-2,3.25E0,5.7636886E-3,3.2E0,1.0344828E-1,1.0895523E-1,2.3E1,1.4285714E-2,1.26E2,1.6666668E-2,1.9E1,3.2E0,3.6704284E-1,1.743427E-1,-8E-1,1.3E2,3.783784E-1,4.6E0,1.24E2,-1.6035955E-1,3.9011428E-1,2.536232E-1,5.7636886E-3,9.3E1,1.4E1,7E0,4.7761884E-2,1.9726926E-1,2.770547E-1,1.6594057E-1,3.2171022E-2,1.7418373E-1,1.6835348E-1,-7.8578226E-2,2.946461E-1,-3.6802355E-3,3.0183354E-1,6.3321656E-1,-5.2506573E-2,5.1732105E-1,5.007584E-1,-2.8955981E-2,-5.6634575E-2,1.3701394E-2,4.37328E-2,3.7333462E-1,-1.4466582E-1,8.965884E-3,5.6489427E-2,-2.74346E-2,-2.7209026E-1,-6.6054955E-2,3.762516E-3,1.2673303E-1,-8.509407E-2,-2.5821791E-3,7.1025245E-2,3.4639484E-1,-5.934755E-2,7.379006E-2,-2.5770694E-1,-1.4024788E-1,3.592257E-1,1.2135767E-1,-2.4344679E-2,-3.086718E-1,3.1904757E-1,-7.9056956E-2,-5.8098923E-2,-1.9251285E-1,-2.0810221E-1,9.308823E-2,-1.2936316E-1,-2.4064767E-1],"split_indices":[5,1,16,17,17,13,13,5,5,4,13,4,5,4,0,13,11,16,16,13,13,0,5,5,4,2,2,2,5,11,13,16,13,4,13,5,5,17,4,11,5,1,13,0,0,2,11,5,2,11,0,0,4,4,0,17,13,0,0,0,0,0,0,0,0,0,0,0,0,0,0,0,0,0,0,0,0,0,0,0,0,0,0,0,0,0,0,0,0,0,0,0,0,0,0,0,0,0,0,0,0,0,0,0,0],"split_type":[0,0,0,0,0,0,0,0,0,0,0,0,0,0,0,0,0,0,0,0,0,0,0,0,0,0,0,0,0,0,0,0,0,0,0,0,0,0,0,0,0,0,0,0,0,0,0,0,0,0,0,0,0,0,0,0,0,0,0,0,0,0,0,0,0,0,0,0,0,0,0,0,0,0,0,0,0,0,0,0,0,0,0,0,0,0,0,0,0,0,0,0,0,0,0,0,0,0,0,0,0,0,0,0,0],"sum_hessian":[1.0956E4,6.625E3,4.331E3,2.172E3,4.453E3,2.649E3,1.682E3,1.87E3,3.02E2,4.059E3,3.94E2,2.527E3,1.22E2,1.677E3,5E0,7.77E2,1.093E3,1.24E2,1.78E2,2.088E3,1.971E3,3.59E2,3.5E1,4.26E2,2.101E3,6.7E1,5.5E1,5.2E2,1.157E3,4.38E2,3.39E2,6.64E2,4.29E2,5.6E1,6.8E1,8.7E1,9.1E1,8E2,1.288E3,1.96E2,1.775E3,1.7E1,3.42E2,2.6E1,9E0,1.84E2,2.42E2,2.067E3,3.4E1,5.9E1,8E0,8E0,4.7E1,2.2E1,4.98E2,5.2E1,1.105E3,3.11E2,1.27E2,1.65E2,1.74E2,3.1E2,3.54E2,8.7E1,3.42E2,4.2E1,1.4E1,2.8E1,4E1,8.1E1,6E0,4.9E1,4.2E1,2.61E2,5.39E2,1.275E3,1.3E1,1.74E2,2.2E1,2.08E2,1.567E3,8E0,9E0,1.2E2,2.22E2,6.8E1,1.16E2,2.31E2,1.1E1,1.981E3,8.6E1,2.8E1,6E0,4.4E1,1.5E1,3.5E1,1.2E1,1.3E1,9E0,4.51E2,4.7E1,1.6E1,3.6E1,1.044E3,6.1E1],"tree_param":{"num_deleted":"0","num_feature":"20","num_nodes":"105","size_leaf_vector":"1"}},{"base_weights":[9.031318E-3,4.6018538E-1,-4.3552253E-1,2.5274965E-1,1.3353112E0,8.731911E-1,-5.395652E-1,6.288863E-2,1.3177775E0,1.4170011E0,-2.0118413E0,1.7352567E0,3.7670538E-1,-6.130266E-1,8.259506E-1,-6.696135E-1,1.06514394E-1,7.2227126E-1,1.7896181E0,1.2795221E0,3.731297E0,-9.124579E-2,-2.5732157E-1,4.0976095E0,1.0154737E0,7.87767E-1,-2.556703E-1,-3.4620997E-1,-8.888428E-1,-2.7454334E-1,1.0258425E0,-4.6697894E-1,-1.9555863E0,2.4801618E-1,-5.8768887E-2,1.9984375E0,1.9980043E-1,1.5698211E-2,2.230028E0,1.3982346E0,-2.8604966E-1,5.3257006E-1,2.4586613E0,1.3487452E-1,5.1867723E-1,3.6401972E-1,1.758392E0,1.4084501E0,3.0468595E-1,-2.299517E0,6.870635E-2,-1.6189971E0,-2.7751344E-1,-7.98299E-1,-1.8587803E0,2.3844206E0,3.1942296E-1,-1.3740464E-1,-7.0477496E-3,-1.356285E-1,-2.1680824E-1,1.17072836E-1,1.696953E-2,-1.354706E-2,1.05397105E-1,5.4417795E-1,1.413052E-1,-2.4105068E-2,1.9584477E-1,-2.5155407E-1,9.997781E-2,4.405602E-1,1.3388193E-1,1.7460628E-1,8.554828E-2,-1.910652E-1,1.1267429E-1,8.027205E-2,4.1679284E-1,1.0714128E-1,-3.326429E-2,2.6839933E-1,-7.653972E-2,2.0126493E-1,8.7848626E-2,-1.2818795E-1,5.6859072E-2,-9.9911235E-2,-2.9109514E-1,-1.8948255E-1,3.4123983E-2,-1.8941392E-1,2.641723E-1,8.599213E-3,-4.705926E-2,-8.3559446E-2,1.1050179E-1,-1.9069414E-1,-6.194621E-2,2.0728651E-2,4.455472E-1,7.826086E-2,-1.4609759E-1],"categories":[],"categories_nodes":[],"categories_segments":[],"categories_sizes":[],"default_left":[0,0,0,0,0,0,0,0,0,0,0,0,0,0,0,0,0,0,0,0,0,0,0,0,0,0,0,0,0,0,0,0,0,0,0,0,0,0,0,0,0,0,0,0,0,0,0,0,0,0,0,0,0,0,0,0,0,0,0,0,0,0,0,0,0,0,0,0,0,0,0,0,0,0,0,0,0,0,0,0,0,0,0,0,0,0,0,0,0,0,0,0,0,0,0,0,0,0,0,0,0,0,0],"id":6,"left_children":[1,3,5,7,9,11,13,15,17,19,21,23,25,27,29,31,33,35,37,39,41,-1,-1,43,45,47,49,51,53,-1,55,57,59,61,63,65,67,69,71,73,75,-1,77,-1,-1,79,81,83,85,87,89,91,93,95,97,99,101,-1,-1,-1,-1,-1,-1,-1,-1,-1,-1,-1,-1,-1,-1,-1,-1,-1,-1,-1,-1,-1,-1,-1,-1,-1,-1,-1,-1,-1,-1,-1,-1,-1,-1,-1,-1,-1,-1,-1,-1,-1,-1,-1,-1,-1,-1],"loss_changes":[2.1769028E3,9.7757715E2,7.4486914E2,8.8073193E2,2.8502942E2,1.7183163E2,5.0859033E2,1.18244484E2,1.8387585E2,3.1593823E2,1.3081184E1,2.4579507E2,6.700738E1,3.5345068E2,1.8771414E2,5.328795E1,8.166166E1,1.9496132E2,2.8668433E2,1.7751794E2,1.0053522E2,0E0,0E0,9.479901E1,5.4533295E1,4.6345932E1,6.7781555E1,2.1333182E2,2.0603906E2,0E0,2.3533105E2,6.500044E1,6.252365E-1,1.3573674E2,1.3764014E2,1.6364355E2,1.6251013E2,1.8684465E2,5.641355E2,1.6576929E2,1.582282E2,0E0,9.0059006E1,0E0,0E0,3.0910883E1,1.25863495E2,2.0005768E1,3.7993355E1,8.223198E0,4.8273E1,1.5154169E2,1.6294064E2,1.5446411E2,1.0815796E1,3.7782883E2,1.3556218E2,0E0,0E0,0E0,0E0,0E0,0E0,0E0,0E0,0E0,0E0,0E0,0E0,0E0,0E0,0E0,0E0,0E0,0E0,0E0,0E0,0E0,0E0,0E0,0E0,0E0,0E0,0E0,0E0,0E0,0E0,0E0,0E0,0E0,0E0,0E0,0E0,0E0,0E0,0E0,0E0,0E0,0E0,0E0,0E0,0E0,0E0],"parents":[2147483647,0,0,1,1,2,2,3,3,4,4,5,5,6,6,7,7,8,8,9,9,10,10,11,11,12,12,13,13,14,14,15,15,16,16,17,17,18,18,19,19,20,20,23,23,24,24,25,25,26,26,27,27,28,28,30,30,31,31,32,32,33,33,34,34,35,35,36,36,37,37,38,38,39,39,40,40,42,42,45,45,46,46,47,47,48,48,49,49,50,50,51,51,52,52,53,53,54,54,55,55,56,56],"right_children":[2,4,6,8,10,12,14,16,18,20,22,24,26,28,30,32,34,36,38,40,42,-1,-1,44,46,48,50,52,54,-1,56,58,60,62,64,66,68,70,72,74,76,-1,78,-1,-1,80,82,84,86,88,90,92,94,96,98,100,102,-1,-1,-1,-1,-1,-1,-1,-1,-1,-1,-1,-1,-1,-1,-1,-1,-1,-1,-1,-1,-1,-1,-1,-1,-1,-1,-1,-1,-1,-1,-1,-1,-1,-1,-1,-1,-1,-1,-1,-1,-1,-1,-1,-1,-1,-1],"split_conditions":[1.0169491E-1,6.6E0,7.272727E-2,6.9E1,1.34E1,4.8E1,8E0,2E0,4.761905E-2,2.91E2,5.7636886E-3,1.2328767E-1,3.846154E-2,1.891892E-1,9.677419E-2,8.9666664E1,5.8666668E1,8.4E1,1.14E2,1.74E2,8.6E0,-9.124579E-2,-2.5732157E-1,1.22E2,1.7777778E-1,2E-1,5.2333332E1,1.0769231E-1,5.714286E-1,-2.7454334E-1,1.0606061E-1,6.1666668E1,1.375E-1,2.6666667E0,5.9E1,1E1,2.02E2,7.8125E-3,5.7142857E-2,2.8666666E1,7.3333335E0,5.3257006E-1,5.7636886E-3,1.3487452E-1,5.1867723E-1,1.3636364E-1,3E-1,3.6E0,6.3666668E1,-3.8E0,2E0,7.2E0,5.1666668E1,1.32E2,1.05E2,6.5E1,1.4E2,-1.3740464E-1,-7.0477496E-3,-1.356285E-1,-2.1680824E-1,1.17072836E-1,1.696953E-2,-1.354706E-2,1.05397105E-1,5.4417795E-1,1.413052E-1,-2.4105068E-2,1.9584477E-1,-2.5155407E-1,9.997781E-2,4.405602E-1,1.3388193E-1,1.7460628E-1,8.554828E-2,-1.910652E-1,1.1267429E-1,8.027205E-2,4.1679284E-1,1.0714128E-1,-3.326429E-2,2.6839933E-1,-7.653972E-2,2.0126493E-1,8.7848626E-2,-1.2818795E-1,5.6859072E-2,-9.9911235E-2,-2.9109514E-1,-1.8948255E-1,3.4123983E-2,-1.8941392E-1,2.641723E-1,8.599213E-3,-4.705926E-2,-8.3559446E-2,1.1050179E-1,-1.9069414E-1,-6.194621E-2,2.0728651E-2,4.455472E-1,7.826086E-2,-1.4609759E-1],"split_indices":[4,13,5,17,13,0,13,13,4,17,4,4,16,16,5,0,0,17,17,17,13,0,0,11,4,4,0,4,16,0,16,0,5,13,17,0,17,16,5,0,13,0,4,0,0,4,4,13,0,2,13,13,0,11,0,17,17,0,0,0,0,0,0,0,0,0,0,0,0,0,0,0,0,0,0,0,0,0,0,0,0,0,0,0,0,0,0,0,0,0,0,0,0,0,0,0,0,0,0,0,0,0,0],"split_type":[0,0,0,0,0,0,0,0,0,0,0,0,0,0,0,0,0,0,0,0,0,0,0,0,0,0,0,0,0,0,0,0,0,0,0,0,0,0,0,0,0,0,0,0,0,0,0,0,0,0,0,0,0,0,0,0,0,0,0,0,0,0,0,0,0,0,0,0,0,0,0,0,0,0,0,0,0,0,0,0,0,0,0,0,0,0,0,0,0,0,0,0,0,0,0,0,0,0,0,0,0,0,0],"sum_hessian":[1.0852E4,5.386E3,5.466E3,4.355E3,1.031E3,4.02E2,5.064E3,3.697E3,6.58E2,1.007E3,2.4E1,1.46E2,2.56E2,4.806E3,2.58E2,2.07E2,3.49E3,2.92E2,3.66E2,9.52E2,5.5E1,9E0,1.5E1,3.3E1,1.13E2,1.55E2,1.01E2,2.444E3,2.362E3,1.3E1,2.45E2,1.8E2,2.7E1,1.88E3,1.61E3,8.4E1,2.08E2,7.3E1,2.93E2,8.85E2,6.7E1,2.3E1,3.2E1,1E1,2.3E1,6.1E1,5.2E1,6.7E1,8.8E1,1.3E1,8.8E1,1.24E2,2.32E3,2.162E3,2E2,8.3E1,1.62E2,5.4E1,1.26E2,9E0,1.8E1,1.46E2,1.734E3,1.507E3,1.03E2,1.1E1,7.3E1,1.67E2,4.1E1,2E1,5.3E1,8.4E1,2.09E2,5.38E2,3.47E2,3.1E1,3.6E1,1.7E1,1.5E1,3E1,3.1E1,3.8E1,1.4E1,3E1,3.7E1,1.2E1,7.6E1,5E0,8E0,1E1,7.8E1,1.17E2,7E0,8.05E2,1.515E3,2.121E3,4.1E1,1.92E2,8E0,4.1E1,4.2E1,1.29E2,3.3E1],"tree_param":{"num_deleted":"0","num_feature":"20","num_nodes":"103","size_leaf_vector":"1"}},{"base_weights":[5.0913244E-5,3.5673922E-1,-4.7046605E-1,1.6183762E-1,1.1247615E0,-1.4734407E-1,-7.72835E-1,2.5188962E-3,1.0610147E0,1.6174917E0,7.327621E-1,-1.10570595E-1,-2.2585127E0,-6.889598E-1,-1.5820787E0,1.6852602E-1,-2.8264704E-1,1.3260682E0,2.6018026E-1,1.3194289E0,3.5451252E0,5.5245172E-2,1.2890253E0,-1.6508245E-1,1.2422185E0,-5.4904755E-2,-2.6153004E-1,-7.214279E-1,1.08966E0,-1.1979567E0,-1.8331174E0,1.4316817E-1,1.67637E0,6.9601053E-1,-3.666276E-1,5.350589E-1,1.9787759E0,-1.1203651E0,1.0957234E0,-7.573192E-1,1.4152584E0,-9.793864E-2,4.1083903E0,4.7906125E-1,-9.910754E-1,2.5423841E0,5.2438056E-1,-3.3145916E-1,4.0311348E-1,1.564767E0,-2.1385436E-1,6.286566E-1,-7.601169E-1,2.4047983E0,-9.56712E-2,-1.5054395E0,1.5046947E-1,-2.0358427E-1,-1.5253859E0,-4.8076836E-3,3.224429E-2,2.245283E-1,-1.6514952E-1,2.1575177E-1,-1.748272E-2,-6.835655E-2,-1.8586293E-2,3.9360115E-1,2.288672E-2,2.5114733E-1,4.8647877E-2,4.2325288E-2,-1.6525988E-1,-9.335031E-3,2.0484185E-1,-1.497861E-1,1.467102E-1,1.6833803E-1,6.1707683E-2,6.537081E-1,3.6606902E-1,-1.3230921E-1,9.4437696E-2,-1.2894581E-1,1.1055974E-1,2.9043463E-1,-2.6707372E-1,-2.2086963E-2,2.1768127E-1,6.715163E-2,-3.91071E-2,1.8804993E-2,2.3750924E-1,-1.4602593E-2,2.2576487E-1,2.883168E-1,-7.170463E-2,-7.2129376E-2,-2.378345E-1,8.776291E-2,3.4356824E-1,2.6157582E-2,-1.0919259E-1,-8.854851E-2,-1.998326E-1,-1.8320844E-2,-1.7364702E-1],"categories":[],"categories_nodes":[],"categories_segments":[],"categories_sizes":[],"default_left":[0,0,0,0,0,0,0,0,0,0,0,0,0,0,0,0,0,0,0,0,0,0,0,0,0,0,0,0,0,0,0,0,0,0,0,0,0,0,0,0,0,0,0,0,0,0,0,0,0,0,0,0,0,0,0,0,0,0,0,0,0,0,0,0,0,0,0,0,0,0,0,0,0,0,0,0,0,0,0,0,0,0,0,0,0,0,0,0,0,0,0,0,0,0,0,0,0,0,0,0,0,0,0,0,0,0,0],"id":7,"left_children":[1,3,5,7,9,11,13,15,17,19,21,23,25,27,29,31,33,35,37,39,41,43,45,47,49,-1,-1,51,53,55,57,59,61,63,65,67,69,71,73,75,77,-1,79,81,83,85,87,89,91,93,-1,95,97,99,101,103,-1,-1,105,-1,-1,-1,-1,-1,-1,-1,-1,-1,-1,-1,-1,-1,-1,-1,-1,-1,-1,-1,-1,-1,-1,-1,-1,-1,-1,-1,-1,-1,-1,-1,-1,-1,-1,-1,-1,-1,-1,-1,-1,-1,-1,-1,-1,-1,-1,-1,-1],"loss_changes":[1.8355339E3,9.3103174E2,4.6064893E2,7.109755E2,2.4199048E2,1.7683575E2,1.6425476E2,1.9967863E2,1.5821619E2,3.153501E2,2.648738E2,1.6561073E2,2.23508E1,1.2835242E2,1.9789978E1,1.01696365E2,1.278113E2,2.885843E2,2.1693309E2,9.739441E1,1.9261267E2,1.4149107E2,3.6859924E2,2.0404471E2,9.8216324E1,0E0,0E0,1.1382422E2,6.2585045E1,7.954997E1,5.3789062E0,8.994609E1,8.701174E1,1.5692368E2,8.179932E1,2.6464178E2,2.4282556E2,5.903061E1,1.3273172E2,3.8437595E1,9.804791E1,0E0,4.783313E1,1.9160497E2,5.8981827E1,2.832519E2,2.9726633E2,1.0005075E2,2.0693866E2,9.515987E1,0E0,1.8713539E2,1.308446E2,2.6897102E1,8.11562E0,2.3898148E1,0E0,0E0,1.6113983E1,0E0,0E0,0E0,0E0,0E0,0E0,0E0,0E0,0E0,0E0,0E0,0E0,0E0,0E0,0E0,0E0,0E0,0E0,0E0,0E0,0E0,0E0,0E0,0E0,0E0,0E0,0E0,0E0,0E0,0E0,0E0,0E0,0E0,0E0,0E0,0E0,0E0,0E0,0E0,0E0,0E0,0E0,0E0,0E0,0E0,0E0,0E0,0E0],"parents":[2147483647,0,0,1,1,2,2,3,3,4,4,5,5,6,6,7,7,8,8,9,9,10,10,11,11,12,12,13,13,14,14,15,15,16,16,17,17,18,18,19,19,20,20,21,21,22,22,23,23,24,24,27,27,28,28,29,29,30,30,31,31,32,32,33,33,34,34,35,35,36,36,37,37,38,38,39,39,40,40,42,42,43,43,44,44,45,45,46,46,47,47,48,48,49,49,51,51,52,52,53,53,54,54,55,55,58,58],"right_children":[2,4,6,8,10,12,14,16,18,20,22,24,26,28,30,32,34,36,38,40,42,44,46,48,50,-1,-1,52,54,56,58,60,62,64,66,68,70,72,74,76,78,-1,80,82,84,86,88,90,92,94,-1,96,98,100,102,104,-1,-1,106,-1,-1,-1,-1,-1,-1,-1,-1,-1,-1,-1,-1,-1,-1,-1,-1,-1,-1,-1,-1,-1,-1,-1,-1,-1,-1,-1,-1,-1,-1,-1,-1,-1,-1,-1,-1,-1,-1,-1,-1,-1,-1,-1,-1,-1,-1,-1,-1],"split_conditions":[1.2658228E-1,6.6E0,1.891892E-1,7.1E1,1.8181818E-2,5.471698E-1,5.483871E-1,2.0833334E-2,9.375E-2,7.8125E-3,7.777778E-2,4.1666666E-1,1.8E1,1.32E2,1.22E2,6.5E1,8.333334E-3,4.1666668E-2,9.90991E-2,1.16E2,1.4E1,7.272727E-2,1.1111111E-1,5.7E1,5.967742E-1,-5.4904755E-2,-2.6153004E-1,7.777778E-2,4.1666666E-1,5.1E1,9.2E1,4.2E0,9.9E1,6.153846E-2,2.4E1,7.4E1,1.27E2,1.22E2,3.6666667E0,3.8E1,1E-1,-9.793864E-2,9.803922E-3,7.2E0,5.6E1,1.27E2,1.4E-1,8.333334E-3,2.413793E-1,1.2E2,-2.1385436E-1,2.3076923E-1,8.4E1,2.3548387E-1,4.408602E-1,7.9E1,1.5046947E-1,-2.0358427E-1,9E0,-4.8076836E-3,3.224429E-2,2.245283E-1,-1.6514952E-1,2.1575177E-1,-1.748272E-2,-6.835655E-2,-1.8586293E-2,3.9360115E-1,2.288672E-2,2.5114733E-1,4.8647877E-2,4.2325288E-2,-1.6525988E-1,-9.335031E-3,2.0484185E-1,-1.497861E-1,1.467102E-1,1.6833803E-1,6.1707683E-2,6.537081E-1,3.6606902E-1,-1.3230921E-1,9.4437696E-2,-1.2894581E-1,1.1055974E-1,2.9043463E-1,-2.6707372E-1,-2.2086963E-2,2.1768127E-1,6.715163E-2,-3.91071E-2,1.8804993E-2,2.3750924E-1,-1.4602593E-2,2.2576487E-1,2.883168E-1,-7.170463E-2,-7.2129376E-2,-2.378345E-1,8.776291E-2,3.4356824E-1,2.6157582E-2,-1.0919259E-1,-8.854851E-2,-1.998326E-1,-1.8320844E-2,-1.7364702E-1],"split_indices":[4,13,16,17,5,4,16,4,16,16,16,4,17,11,11,17,5,4,16,11,17,5,16,17,5,0,0,5,4,17,1,13,1,4,17,17,11,11,13,17,2,0,16,13,1,11,5,5,4,11,0,16,17,5,4,1,0,0,17,0,0,0,0,0,0,0,0,0,0,0,0,0,0,0,0,0,0,0,0,0,0,0,0,0,0,0,0,0,0,0,0,0,0,0,0,0,0,0,0,0,0,0,0,0,0,0,0],"split_type":[0,0,0,0,0,0,0,0,0,0,0,0,0,0,0,0,0,0,0,0,0,0,0,0,0,0,0,0,0,0,0,0,0,0,0,0,0,0,0,0,0,0,0,0,0,0,0,0,0,0,0,0,0,0,0,0,0,0,0,0,0,0,0,0,0,0,0,0,0,0,0,0,0,0,0,0,0,0,0,0,0,0,0,0,0,0,0,0,0,0,0,0,0,0,0,0,0,0,0,0,0,0,0,0,0,0,0],"sum_hessian":[1.0935E4,6.22E3,4.715E3,4.962E3,1.258E3,2.28E3,2.435E3,4.216E3,7.46E2,5.56E2,7.02E2,2.242E3,3.8E1,2.208E3,2.27E2,2.665E3,1.551E3,5.6E2,1.86E2,4.83E2,7.3E1,3.17E2,3.85E2,2.156E3,8.6E1,7E0,3.1E1,2.169E3,3.9E1,9.2E1,1.35E2,2.622E3,4.3E1,1.22E2,1.429E3,2.54E2,3.06E2,7E1,1.16E2,2.1E1,4.62E2,8E0,6.5E1,2.26E2,9.1E1,1.45E2,2.4E2,1.668E3,4.88E2,7.9E1,7E0,6E1,2.109E3,1.8E1,2.1E1,8.3E1,9E0,7.8E1,5.7E1,1.269E3,1.353E3,3.7E1,6E0,4.5E1,7.7E1,5.18E2,9.11E2,2E1,2.34E2,2.25E2,8.1E1,1.8E1,5.2E1,5.2E1,6.4E1,1.6E1,5E0,3.45E2,1.17E2,8E0,5.7E1,4.6E1,1.8E2,8E1,1.1E1,1.36E2,9E0,1.66E2,7.4E1,9.3E1,1.575E3,4.41E2,4.7E1,2.3E1,5.6E1,2.2E1,3.8E1,2.061E3,4.8E1,8E0,1E1,1.6E1,5E0,3.8E1,4.5E1,8E0,4.9E1],"tree_param":{"num_deleted":"0","num_feature":"20","num_nodes":"107","size_leaf_vector":"1"}},{"base_weights":[9.752189E-3,3.3265108E-1,-4.086894E-1,1.5761897E-1,1.0320851E0,-4.47551E-2,-5.888714E-1,2.4435675E-2,8.987727E-1,1.5445378E0,6.1565983E-1,-1.2692414E-1,1.9332293E0,-8.586364E-1,-3.4486088E-1,1.3627192E-1,-3.4699208E-1,1.0021092E0,-7.8678083E-1,-5.7998884E-1,1.6892065E0,7.021881E-1,-2.016038E0,-1.306067E0,-7.890922E-3,1.5587602E0,4.7063026E-1,-8.90713E-1,4.0483385E-1,-3.840433E-1,2.1534724E0,1.0220095E-1,9.6470654E-1,8.7049747E-1,-4.2403966E-1,2.5326383E0,8.7206155E-1,-1.5500131E0,5.1658887E-1,8.864317E-1,-1.3501338E0,2.0030494E0,8.601769E-1,5.509663E-1,3.869561E-1,-1.0258148E-1,-2.4097542E-1,1.082561E-1,-1.4996239E0,-3.3035946E-1,4.0466863E-1,2.039934E-1,7.587672E-1,-7.2621816E-1,-1.3599186E0,-2.931951E-1,-3.5254502E-1,3.818232E0,-1.069332E-2,1.6763547E-2,-3.298859E-2,-4.5495078E-2,1.5759641E-1,-1.07176535E-1,1.9209455E-1,-2.2500971E-2,-9.899477E-2,3.1471494E-1,1.0946357E-1,9.1793574E-2,-2.952751E-1,-2.8439385E-3,-1.9636951E-1,1.2431743E-1,-1.1633835E-2,1.2133811E-1,3.027606E-2,-1.8374498E-1,-7.096969E-2,3.056092E-3,2.102417E-1,6.1492264E-2,3.0936155E-1,3.918891E-2,2.5260165E-1,-8.352444E-2,-2.0476687E-1,-3.7725028E-2,1.9146717E-1,2.0809726E-1,2.2988904E-2,1.9630411E-1,2.1825634E-2,-6.92166E-4,-8.739581E-2,-4.4216495E-2,-1.4190528E-1,-1.7950061E-1,-3.048183E-2,4.8899767E-1,1.894813E-1],"categories":[],"categories_nodes":[],"categories_segments":[],"categories_sizes":[],"default_left":[0,0,0,0,0,0,0,0,0,0,0,0,0,0,0,0,0,0,0,0,0,0,0,0,0,0,0,0,0,0,0,0,0,0,0,0,0,0,0,0,0,0,0,0,0,0,0,0,0,0,0,0,0,0,0,0,0,0,0,0,0,0,0,0,0,0,0,0,0,0,0,0,0,0,0,0,0,0,0,0,0,0,0,0,0,0,0,0,0,0,0,0,0,0,0,0,0,0,0,0,0],"id":8,"left_children":[1,3,5,7,9,11,13,15,17,19,21,23,25,27,29,31,33,35,37,39,41,43,45,47,49,51,-1,53,-1,55,57,59,61,63,65,67,69,71,73,75,77,79,81,83,-1,-1,-1,-1,85,87,89,-1,91,93,95,-1,97,99,-1,-1,-1,-1,-1,-1,-1,-1,-1,-1,-1,-1,-1,-1,-1,-1,-1,-1,-1,-1,-1,-1,-1,-1,-1,-1,-1,-1,-1,-1,-1,-1,-1,-1,-1,-1,-1,-1,-1,-1,-1,-1,-1],"loss_changes":[1.4772057E3,7.553123E2,3.12239E2,4.8730582E2,2.6259595E2,2.5671625E2,2.0935815E2,1.739299E2,1.3177124E2,1.7094568E2,1.5694577E2,2.1277115E2,5.808513E1,2.4159314E2,1.646961E2,9.073131E1,9.126581E1,1.3891193E2,4.4570763E1,4.185363E1,1.3305298E2,3.1494995E2,6.105118E0,6.588805E1,1.8345934E2,2.0393494E1,0E0,1.15016846E2,0E0,1.3130637E2,9.824712E1,8.7476654E1,1.10924576E2,1.20393074E2,1.02498215E2,4.515677E1,1.1763669E2,1.7568687E1,7.9625163E0,2.1134377E0,6.1862526E0,7.343616E1,7.697515E1,1.9788948E2,0E0,0E0,0E0,0E0,4.525992E1,8.220235E1,1.7677673E2,0E0,1.4542784E1,1.184837E2,2.0483704E1,0E0,1.116685E2,2.1655624E1,0E0,0E0,0E0,0E0,0E0,0E0,0E0,0E0,0E0,0E0,0E0,0E0,0E0,0E0,0E0,0E0,0E0,0E0,0E0,0E0,0E0,0E0,0E0,0E0,0E0,0E0,0E0,0E0,0E0,0E0,0E0,0E0,0E0,0E0,0E0,0E0,0E0,0E0,0E0,0E0,0E0,0E0,0E0],"parents":[2147483647,0,0,1,1,2,2,3,3,4,4,5,5,6,6,7,7,8,8,9,9,10,10,11,11,12,12,13,13,14,14,15,15,16,16,17,17,18,18,19,19,20,20,21,21,22,22,23,23,24,24,25,25,27,27,29,29,30,30,31,31,32,32,33,33,34,34,35,35,36,36,37,37,38,38,39,39,40,40,41,41,42,42,43,43,48,48,49,49,50,50,52,52,53,53,54,54,56,56,57,57],"right_children":[2,4,6,8,10,12,14,16,18,20,22,24,26,28,30,32,34,36,38,40,42,44,46,48,50,52,-1,54,-1,56,58,60,62,64,66,68,70,72,74,76,78,80,82,84,-1,-1,-1,-1,86,88,90,-1,92,94,96,-1,98,100,-1,-1,-1,-1,-1,-1,-1,-1,-1,-1,-1,-1,-1,-1,-1,-1,-1,-1,-1,-1,-1,-1,-1,-1,-1,-1,-1,-1,-1,-1,-1,-1,-1,-1,-1,-1,-1,-1,-1,-1,-1,-1,-1],"split_conditions":[1.2658228E-1,6.6E0,1.5972222E-1,7.1E1,1.8181818E-2,1.98E2,2.9E1,6.818182E-2,2E-1,6E0,1.34E1,2.2E0,1.4137931E-1,9.4E0,1.31E2,5.7142857E-2,-7E0,7.5E1,4E-2,7.2E0,3.4E1,2.91E2,5.7636886E-3,-2.9E0,1.71875E-1,1.5116279E-1,4.7063026E-1,3.9130434E-1,4.0483385E-1,1.6E-1,4.1666666E-1,2.3255814E-2,2.4E1,9.565217E-2,2.5E-1,5.7142857E-2,1.7272727E-1,1.13E2,3.7E1,1.25E2,1.23E2,1.16E2,7.2333336E1,1.04E1,3.869561E-1,-1.0258148E-1,-2.4097542E-1,1.082561E-1,1.18644066E-1,1.1E1,1.17E2,2.039934E-1,2E-2,4.2333332E1,1.9354838E-1,-2.931951E-1,1.14E2,1E1,-1.069332E-2,1.6763547E-2,-3.298859E-2,-4.5495078E-2,1.5759641E-1,-1.07176535E-1,1.9209455E-1,-2.2500971E-2,-9.899477E-2,3.1471494E-1,1.0946357E-1,9.1793574E-2,-2.952751E-1,-2.8439385E-3,-1.9636951E-1,1.2431743E-1,-1.1633835E-2,1.2133811E-1,3.027606E-2,-1.8374498E-1,-7.096969E-2,3.056092E-3,2.102417E-1,6.1492264E-2,3.0936155E-1,3.918891E-2,2.5260165E-1,-8.352444E-2,-2.0476687E-1,-3.7725028E-2,1.9146717E-1,2.0809726E-1,2.2988904E-2,1.9630411E-1,2.1825634E-2,-6.92166E-4,-8.739581E-2,-4.4216495E-2,-1.4190528E-1,-1.7950061E-1,-3.048183E-2,4.8899767E-1,1.894813E-1],"split_indices":[4,13,5,17,5,17,17,4,14,17,13,13,5,13,11,4,2,17,5,13,0,17,4,2,4,4,0,4,0,5,4,4,17,4,14,4,5,11,0,11,11,11,0,13,0,0,0,0,5,13,11,0,5,0,5,0,11,0,0,0,0,0,0,0,0,0,0,0,0,0,0,0,0,0,0,0,0,0,0,0,0,0,0,0,0,0,0,0,0,0,0,0,0,0,0,0,0,0,0,0,0],"split_type":[0,0,0,0,0,0,0,0,0,0,0,0,0,0,0,0,0,0,0,0,0,0,0,0,0,0,0,0,0,0,0,0,0,0,0,0,0,0,0,0,0,0,0,0,0,0,0,0,0,0,0,0,0,0,0,0,0,0,0,0,0,0,0,0,0,0,0,0,0,0,0,0,0,0,0,0,0,0,0,0,0,0,0,0,0,0,0,0,0,0,0,0,0,0,0,0,0,0,0,0,0],"sum_hessian":[1.0931E4,6.17E3,4.761E3,4.936E3,1.234E3,1.577E3,3.184E3,4.185E3,7.51E2,5.52E2,6.82E2,1.515E3,6.2E1,1.511E3,1.673E3,3.217E3,9.68E2,7.08E2,4.3E1,3.5E1,5.17E2,6.61E2,2.1E1,1.38E2,1.377E3,5.6E1,6E0,1.502E3,9E0,1.648E3,2.5E1,3.091E3,1.26E2,5.7E1,9.11E2,5.4E1,6.54E2,2.7E1,1.6E1,1.2E1,2.3E1,3.74E2,1.43E2,6.32E2,2.9E1,7E0,1.4E1,1E1,1.28E2,7.73E2,6.04E2,3.4E1,2.2E1,1.114E3,3.88E2,1.9E1,1.629E3,1.4E1,1.1E1,2.685E3,4.06E2,3.8E1,8.8E1,2E1,3.7E1,6.75E2,2.36E2,3.7E1,1.7E1,6.47E2,7E0,6E0,2.1E1,7E0,9E0,7E0,5E0,1.2E1,1.1E1,1.8E1,3.56E2,1.3E2,1.3E1,5.86E2,4.6E1,5.9E1,6.9E1,7.58E2,1.5E1,5.6E1,5.48E2,6E0,1.6E1,1.9E2,9.24E2,2.4E1,3.64E2,5.1E1,1.578E3,8E0,6E0],"tree_param":{"num_deleted":"0","num_feature":"20","num_nodes":"101","size_leaf_vector":"1"}},{"base_weights":[1.3988976E-2,2.727347E-1,-3.785341E-1,9.099194E-2,8.915516E-1,-2.8969297E-1,-1.0231401E0,4.1474473E-1,-1.4027518E-1,7.8732926E-1,2.7160242E0,-5.7697326E-1,-1.3931602E-1,-8.2633334E-1,-1.5662147E0,8.53819E-1,1.2008089E-1,-9.52436E-1,-6.4261526E-2,8.9474946E-1,-1.0571717E0,1.1234176E0,4.3614974E0,-1.0054201E0,-3.2893637E-1,-1.6769561E-1,2.5621042E0,4.034495E-1,-9.501107E-1,-1.7374966E0,-3.278077E-1,9.7484344E-1,-5.949073E-1,6.1041457E-3,1.1688015E0,-1.1143973E0,-6.213223E-2,-3.859319E-4,-9.0500945E-1,1.5508239E0,6.64749E-1,-7.176447E-1,-3.059959E-1,-1.3407539E-1,1.7426566E0,5.840881E-1,3.8553545E0,-6.008786E-1,-1.3095917E0,-3.7769943E-1,1.3941926E0,-2.3067059E-1,8.2904947E-1,3.747911E0,-9.418742E-3,-1.2263284E0,2.5173173E0,-1.7839475E0,-7.3230225E-1,-1.9493339E0,-1.4478494E0,2.5650552E-1,-1.6377592E-1,-3.1078774E-2,1.0667225E-1,1.22135736E-1,-1.3014515E-1,-1.7248211E-2,2.9567838E-2,9.2484705E-2,2.7576914E-1,-1.2759762E-1,-8.084823E-3,1.4312918E-1,-9.2133336E-2,-3.4158077E-2,1.8378435E-2,-1.1061636E-1,4.5404965E-1,1.1754026E-1,3.5089472E-1,-7.339354E-2,8.4983796E-2,-1.8091047E-1,-1.1958503E-2,7.8764595E-2,3.050697E-1,2.0797288E-1,4.185125E-1,-9.695481E-2,-1.2027199E-2,3.9767202E-2,-1.389918E-1,9.435804E-2,-4.1945685E-2,-5.6423444E-2,4.5033273E-1,4.1436367E-2,-3.2831784E-2,1.4470503E-1,-2.398498E-1,2.4355283E-1,5.462294E-1,-2.1416433E-1,-5.317593E-4,1.6248794E-1,3.0308935E-1,-1.8859555E-1,-3.4753356E-2,-8.676305E-2,3.9773107E-1,-1.9950172E-1,-1.15238346E-1,-7.129275E-2,-1.5577738E-1],"categories":[],"categories_nodes":[],"categories_segments":[],"categories_sizes":[],"default_left":[0,0,0,0,0,0,0,0,0,0,0,0,0,0,0,0,0,0,0,0,0,0,0,0,0,0,0,0,0,0,0,0,0,0,0,0,0,0,0,0,0,0,0,0,0,0,0,0,0,0,0,0,0,0,0,0,0,0,0,0,0,0,0,0,0,0,0,0,0,0,0,0,0,0,0,0,0,0,0,0,0,0,0,0,0,0,0,0,0,0,0,0,0,0,0,0,0,0,0,0,0,0,0,0,0,0,0,0,0,0,0,0,0,0,0],"id":9,"left_children":[1,3,5,7,9,11,13,15,17,19,21,23,25,27,29,31,33,35,37,39,41,43,45,47,49,51,53,55,57,59,61,63,65,67,69,71,73,75,77,79,81,83,-1,-1,85,-1,87,89,91,93,95,97,99,101,-1,103,105,107,109,111,113,-1,-1,-1,-1,-1,-1,-1,-1,-1,-1,-1,-1,-1,-1,-1,-1,-1,-1,-1,-1,-1,-1,-1,-1,-1,-1,-1,-1,-1,-1,-1,-1,-1,-1,-1,-1,-1,-1,-1,-1,-1,-1,-1,-1,-1,-1,-1,-1,-1,-1,-1,-1,-1,-1],"loss_changes":[1.1046082E3,7.371302E2,2.4715656E2,3.7951645E2,2.8080615E2,1.6403769E2,5.460443E1,2.7314658E2,1.8249011E2,2.8012054E2,2.0474756E2,1.3835245E2,1.9170938E2,5.9139923E1,2.8702545E1,1.4926086E2,1.5119801E2,3.6412018E1,1.45267E2,1.9996448E2,5.0844063E1,6.642474E1,6.683716E0,5.8031036E1,7.009932E1,1.5523311E2,8.2249054E1,1.2711191E2,6.24411E1,4.601959E0,7.241212E1,9.282153E1,8.628544E1,5.9108356E1,4.5514038E1,3.5634766E1,5.2644764E1,1.581002E2,2.1424135E2,2.4949237E2,2.5639816E2,4.417121E1,0E0,0E0,4.006967E1,0E0,1.003363E1,3.656067E1,3.785431E1,4.4865402E1,1.4258823E2,1.465151E2,2.9668085E2,2.719513E1,0E0,2.3458405E1,2.4085236E0,9.894394E0,1.8190701E2,1.4027405E-1,3.3326569E0,0E0,0E0,0E0,0E0,0E0,0E0,0E0,0E0,0E0,0E0,0E0,0E0,0E0,0E0,0E0,0E0,0E0,0E0,0E0,0E0,0E0,0E0,0E0,0E0,0E0,0E0,0E0,0E0,0E0,0E0,0E0,0E0,0E0,0E0,0E0,0E0,0E0,0E0,0E0,0E0,0E0,0E0,0E0,0E0,0E0,0E0,0E0,0E0,0E0,0E0,0E0,0E0,0E0,0E0],"parents":[2147483647,0,0,1,1,2,2,3,3,4,4,5,5,6,6,7,7,8,8,9,9,10,10,11,11,12,12,13,13,14,14,15,15,16,16,17,17,18,18,19,19,20,20,21,21,22,22,23,23,24,24,25,25,26,26,27,27,28,28,29,29,30,30,31,31,32,32,33,33,34,34,35,35,36,36,37,37,38,38,39,39,40,40,41,41,44,44,46,46,47,47,48,48,49,49,50,50,51,51,52,52,53,53,55,55,56,56,57,57,58,58,59,59,60,60],"right_children":[2,4,6,8,10,12,14,16,18,20,22,24,26,28,30,32,34,36,38,40,42,44,46,48,50,52,54,56,58,60,62,64,66,68,70,72,74,76,78,80,82,84,-1,-1,86,-1,88,90,92,94,96,98,100,102,-1,104,106,108,110,112,114,-1,-1,-1,-1,-1,-1,-1,-1,-1,-1,-1,-1,-1,-1,-1,-1,-1,-1,-1,-1,-1,-1,-1,-1,-1,-1,-1,-1,-1,-1,-1,-1,-1,-1,-1,-1,-1,-1,-1,-1,-1,-1,-1,-1,-1,-1,-1,-1,-1,-1,-1,-1,-1,-1],"split_conditions":[1.4516129E-1,6.5E1,4.5E-1,1.6666668E-2,1.4102565E-1,2.4E1,6.363636E-1,4.6E1,2.2E0,1.3157895E-1,4E0,-8E-1,1.32E2,1.9354838E-1,5E0,5.6E1,5.2E1,2E-1,6E-1,8.333334E-3,7.6666665E0,1.2E0,7.4E1,2.0238096E-1,9.2E0,7.2E0,4.1666666E-1,2.5E-1,1.19E2,5.641026E-1,5.3333335E0,1.17E2,4E0,5.2E0,6E-1,4.7E1,6.9E1,5.9E1,5.7E1,2.91E2,4.1666668E-2,4E0,-3.059959E-1,-1.3407539E-1,1.22E2,5.840881E-1,9.3E1,1.22E2,-8.4E0,1.17E2,2.5E-1,5.7636886E-3,1.4E2,5.2E0,-9.418742E-3,-3.3E0,7.3E1,5.1428574E-1,6.5E1,1.07E2,5.967742E-1,2.5650552E-1,-1.6377592E-1,-3.1078774E-2,1.0667225E-1,1.22135736E-1,-1.3014515E-1,-1.7248211E-2,2.9567838E-2,9.2484705E-2,2.7576914E-1,-1.2759762E-1,-8.084823E-3,1.4312918E-1,-9.2133336E-2,-3.4158077E-2,1.8378435E-2,-1.1061636E-1,4.5404965E-1,1.1754026E-1,3.5089472E-1,-7.339354E-2,8.4983796E-2,-1.8091047E-1,-1.1958503E-2,7.8764595E-2,3.050697E-1,2.0797288E-1,4.185125E-1,-9.695481E-2,-1.2027199E-2,3.9767202E-2,-1.389918E-1,9.435804E-2,-4.1945685E-2,-5.6423444E-2,4.5033273E-1,4.1436367E-2,-3.2831784E-2,1.4470503E-1,-2.398498E-1,2.4355283E-1,5.462294E-1,-2.1416433E-1,-5.317593E-4,1.6248794E-1,3.0308935E-1,-1.8859555E-1,-3.4753356E-2,-8.676305E-2,3.9773107E-1,-1.9950172E-1,-1.15238346E-1,-7.129275E-2,-1.5577738E-1],"split_indices":[5,17,4,5,5,17,4,1,13,5,13,2,11,5,13,17,17,15,14,5,13,13,17,4,13,13,4,14,11,5,13,11,13,13,14,17,1,1,17,17,5,13,0,0,11,0,17,11,2,11,4,4,17,13,0,2,1,5,17,1,5,0,0,0,0,0,0,0,0,0,0,0,0,0,0,0,0,0,0,0,0,0,0,0,0,0,0,0,0,0,0,0,0,0,0,0,0,0,0,0,0,0,0,0,0,0,0,0,0,0,0,0,0,0,0],"split_type":[0,0,0,0,0,0,0,0,0,0,0,0,0,0,0,0,0,0,0,0,0,0,0,0,0,0,0,0,0,0,0,0,0,0,0,0,0,0,0,0,0,0,0,0,0,0,0,0,0,0,0,0,0,0,0,0,0,0,0,0,0,0,0,0,0,0,0,0,0,0,0,0,0,0,0,0,0,0,0,0,0,0,0,0,0,0,0,0,0,0,0,0,0,0,0,0,0,0,0,0,0,0,0,0,0,0,0,0,0,0,0,0,0,0,0],"sum_hessian":[1.0874E4,6.554E3,4.32E3,5.067E3,1.487E3,3.798E3,5.22E2,2.111E3,2.956E3,1.408E3,7.9E1,1.304E3,2.494E3,3.85E2,1.37E2,8.47E2,1.264E3,2.52E2,2.704E3,1.331E3,7.7E1,4.1E1,3.8E1,4.77E2,8.27E2,2.469E3,2.5E1,3.5E1,3.5E2,1.2E2,1.7E1,7.82E2,6.5E1,1.141E3,1.23E2,2.13E2,3.9E1,2.514E3,1.9E2,3.44E2,9.87E2,6.7E1,1E1,8E0,3.3E1,7E0,3.1E1,2.06E2,2.71E2,8.05E2,2.2E1,2.323E3,1.46E2,1.7E1,8E0,2E1,1.5E1,7.1E1,2.79E2,6.6E1,5.4E1,5E0,1.2E1,5.2E1,7.3E2,1.8E1,4.7E1,7.06E2,4.35E2,1.08E2,1.5E1,1.84E2,2.9E1,1.4E1,2.5E1,8.81E2,1.633E3,1.84E2,6E0,2.9E2,5.4E1,1.15E2,8.72E2,2.3E1,4.4E1,2E1,1.3E1,6E0,2.5E1,1.16E2,9E1,1.2E1,2.59E2,2.4E1,7.81E2,1.4E1,8E0,3.05E2,2.018E3,1.23E2,2.3E1,1.1E1,6E0,1.1E1,9E0,7E0,8E0,6.6E1,5E0,2.72E2,7E0,6.1E1,5E0,8E0,4.6E1],"tree_param":{"num_deleted":"0","num_feature":"20","num_nodes":"115","size_leaf_vector":"1"}},{"base_weights":[7.0037507E-3,2.9515487E-1,-3.103604E-1,6.893704E-1,1.1084675E-1,-5.576824E-2,-5.582109E-1,4.7643754E-1,1.7638358E0,-3.1693786E-1,2.7595186E-1,1.1220932E-1,-3.761275E-1,-4.851013E-1,-1.229724E0,7.119059E-1,-1.5007427E-4,5.218326E-2,1.997932E0,-3.9874095E-1,1.0789971E0,-1.7751015E0,3.0562028E-1,-1.6320545E-3,1.0731169E0,-2.7939227E-1,-1.0472167E0,-6.317194E-1,-1.8748376E-1,-1.2993367E0,4.3886098E-1,7.667647E-1,-1.48459E0,-1.0012038E-1,1.7585924E0,-1.2864945E0,8.309043E-1,2.1361504E0,-8.244317E-2,3.955225E-2,-5.5977565E-1,1.4019067E0,-9.0659164E-2,-2.0317183E-1,-8.020795E-2,3.336631E-1,-1.7089607E0,-7.3366106E-2,1.0445064E0,1.789999E0,2.9374167E-1,-5.00018E-1,4.7465708E-2,-1.7517859E0,-2.8864253E-2,-6.9519845E-3,-7.5933427E-1,-2.4663919E-1,2.0727544E0,-1.3385762E0,4.933416E-2,2.2441025E-1,-1.439524E-1,7.220555E-2,2.1704097E-1,5.141107E-2,-2.6409912E-1,-1.3945386E-2,1.951975E-1,2.1306013E-1,1.0146125E-2,-1.2656634E-2,-1.916836E-1,1.5312701E-1,5.660043E-2,1.4750594E-1,2.834223E-1,-2.347091E-3,2.8690025E-1,-3.5384417E-2,-8.7340705E-2,-2.308368E-2,1.8975008E-1,2.4439219E-1,3.1238178E-2,-1.7731294E-2,-2.2496453E-1,1.2776633E-1,-1.2747317E-2,2.4169838E-2,2.5698158E-1,1.3379733E-1,3.4563097E-1,1.06874906E-1,-1.2664022E-1,-6.0163837E-2,6.071762E-2,1.2741868E-1,-1.7660305E-2,-1.9484185E-1,5.0650544E-2,3.2138277E-2,-1.7327105E-1,-6.051556E-2,4.8620876E-2,-6.484567E-2,-1.1082121E-1,-4.2851854E-2,2.7624646E-2,4.3703672E-1,-1.2210353E-1,-1.0182158E-2,-1.380603E-1],"categories":[],"categories_nodes":[],"categories_segments":[],"categories_sizes":[],"default_left":[0,0,0,0,0,0,0,0,0,0,0,0,0,0,0,0,0,0,0,0,0,0,0,0,0,0,0,0,0,0,0,0,0,0,0,0,0,0,0,0,0,0,0,0,0,0,0,0,0,0,0,0,0,0,0,0,0,0,0,0,0,0,0,0,0,0,0,0,0,0,0,0,0,0,0,0,0,0,0,0,0,0,0,0,0,0,0,0,0,0,0,0,0,0,0,0,0,0,0,0,0,0,0,0,0,0,0,0,0,0,0,0,0],"id":10,"left_children":[1,3,5,7,9,11,13,15,17,19,21,23,25,27,29,31,33,35,37,39,41,43,45,47,49,51,53,55,57,59,61,63,65,67,69,71,73,75,-1,77,79,81,-1,-1,-1,83,85,87,89,91,93,95,97,99,101,103,105,107,109,111,-1,-1,-1,-1,-1,-1,-1,-1,-1,-1,-1,-1,-1,-1,-1,-1,-1,-1,-1,-1,-1,-1,-1,-1,-1,-1,-1,-1,-1,-1,-1,-1,-1,-1,-1,-1,-1,-1,-1,-1,-1,-1,-1,-1,-1,-1,-1,-1,-1,-1,-1,-1,-1],"loss_changes":[9.913969E2,4.1276138E2,3.2550595E2,4.1326776E2,2.736352E2,1.3705055E2,1.2773529E2,1.6967871E2,1.1970239E2,1.23643196E2,1.7062251E2,1.8279419E2,5.6575554E1,1.0281915E2,3.0305817E1,1.2308148E2,8.826291E1,3.9639843E1,1.0435803E2,7.201416E1,3.97409E1,8.358154E0,1.562692E2,1.12267044E2,9.8367676E1,5.5334618E1,7.8874405E1,1.2596753E2,1.0480138E2,1.7964966E1,4.0530758E1,6.0435547E1,5.914025E1,3.8612335E1,1.6428452E1,9.993509E0,3.5859394E0,1.116532E2,0E0,4.9105576E1,4.7872513E1,4.2515266E1,0E0,0E0,0E0,1.2134448E2,3.1070358E1,1.0250318E2,1.1693383E2,6.467136E1,1.0533804E2,5.1896477E1,8.543469E1,2.9850388E1,2.800815E1,7.965206E1,5.003308E1,7.249107E1,1.5669344E2,1.2385834E1,0E0,0E0,0E0,0E0,0E0,0E0,0E0,0E0,0E0,0E0,0E0,0E0,0E0,0E0,0E0,0E0,0E0,0E0,0E0,0E0,0E0,0E0,0E0,0E0,0E0,0E0,0E0,0E0,0E0,0E0,0E0,0E0,0E0,0E0,0E0,0E0,0E0,0E0,0E0,0E0,0E0,0E0,0E0,0E0,0E0,0E0,0E0,0E0,0E0,0E0,0E0,0E0,0E0],"parents":[2147483647,0,0,1,1,2,2,3,3,4,4,5,5,6,6,7,7,8,8,9,9,10,10,11,11,12,12,13,13,14,14,15,15,16,16,17,17,18,18,19,19,20,20,21,21,22,22,23,23,24,24,25,25,26,26,27,27,28,28,29,29,30,30,31,31,32,32,33,33,34,34,35,35,36,36,37,37,39,39,40,40,41,41,45,45,46,46,47,47,48,48,49,49,50,50,51,51,52,52,53,53,54,54,55,55,56,56,57,57,58,58,59,59],"right_children":[2,4,6,8,10,12,14,16,18,20,22,24,26,28,30,32,34,36,38,40,42,44,46,48,50,52,54,56,58,60,62,64,66,68,70,72,74,76,-1,78,80,82,-1,-1,-1,84,86,88,90,92,94,96,98,100,102,104,106,108,110,112,-1,-1,-1,-1,-1,-1,-1,-1,-1,-1,-1,-1,-1,-1,-1,-1,-1,-1,-1,-1,-1,-1,-1,-1,-1,-1,-1,-1,-1,-1,-1,-1,-1,-1,-1,-1,-1,-1,-1,-1,-1,-1,-1,-1,-1,-1,-1,-1,-1,-1,-1,-1,-1],"split_conditions":[5.8666668E1,2.1052632E-2,1.6111112E-1,5.7636886E-3,2.4E1,2E-1,5E-1,3.9666668E1,1.6E1,5.6E1,2.7272727E-2,5.6E1,1.4935064E-1,3.8E1,6.1E1,1.0091743E-1,7.3E0,6.849315E-2,2.3076923E-1,2.7777778E-2,3.4E0,2.7777778E-2,5.263158E-1,1.5384616E-1,5.4054055E-2,7.4E1,1.75E-1,1.2328767E-1,5.1428574E-1,1E0,9.7E1,2.3809524E-2,5E0,6.666667E-1,6.1E1,6E0,1.0725552E-1,3.3333335E-2,-8.244317E-2,3.4146342E-1,4.3333332E1,-1.8E0,-9.0659164E-2,-2.0317183E-1,-8.020795E-2,3.3333335E-2,-4.8E0,-5.1E0,1.7391305E-1,2E-1,1.1E-1,1.3265306E-1,7.6666664E1,1.01E1,8.3666664E1,8.3E1,3.6842105E-1,1.6E0,-4E0,1.6923077E-1,4.933416E-2,2.2441025E-1,-1.439524E-1,7.220555E-2,2.1704097E-1,5.141107E-2,-2.6409912E-1,-1.3945386E-2,1.951975E-1,2.1306013E-1,1.0146125E-2,-1.2656634E-2,-1.916836E-1,1.5312701E-1,5.660043E-2,1.4750594E-1,2.834223E-1,-2.347091E-3,2.8690025E-1,-3.5384417E-2,-8.7340705E-2,-2.308368E-2,1.8975008E-1,2.4439219E-1,3.1238178E-2,-1.7731294E-2,-2.2496453E-1,1.2776633E-1,-1.2747317E-2,2.4169838E-2,2.5698158E-1,1.3379733E-1,3.4563097E-1,1.06874906E-1,-1.2664022E-1,-6.0163837E-2,6.071762E-2,1.2741868E-1,-1.7660305E-2,-1.9484185E-1,5.0650544E-2,3.2138277E-2,-1.7327105E-1,-6.051556E-2,4.8620876E-2,-6.484567E-2,-1.1082121E-1,-4.2851854E-2,2.7624646E-2,4.3703672E-1,-1.2210353E-1,-1.0182158E-2,-1.380603E-1],"split_indices":[0,5,5,4,17,14,16,0,17,0,5,17,16,17,17,16,2,4,16,4,2,16,4,5,4,0,16,4,5,14,0,16,17,14,1,17,4,16,0,5,0,2,0,0,0,5,2,2,4,15,16,16,0,2,0,1,4,2,2,5,0,0,0,0,0,0,0,0,0,0,0,0,0,0,0,0,0,0,0,0,0,0,0,0,0,0,0,0,0,0,0,0,0,0,0,0,0,0,0,0,0,0,0,0,0,0,0,0,0,0,0,0,0],"split_type":[0,0,0,0,0,0,0,0,0,0,0,0,0,0,0,0,0,0,0,0,0,0,0,0,0,0,0,0,0,0,0,0,0,0,0,0,0,0,0,0,0,0,0,0,0,0,0,0,0,0,0,0,0,0,0,0,0,0,0,0,0,0,0,0,0,0,0,0,0,0,0,0,0,0,0,0,0,0,0,0,0,0,0,0,0,0,0,0,0,0,0,0,0,0,0,0,0,0,0,0,0,0,0,0,0,0,0,0,0,0,0,0,0],"sum_hessian":[1.0839E4,5.681E3,5.158E3,1.809E3,3.872E3,2.545E3,2.613E3,1.511E3,2.98E2,1.078E3,2.794E3,1.67E3,8.75E2,2.358E3,2.55E2,1.011E3,5E2,3.6E1,2.62E2,1.019E3,5.9E1,3.9E1,2.755E3,1.494E3,1.76E2,7.66E2,1.09E2,1.579E3,7.79E2,2.45E2,1E1,9.87E2,2.4E1,4.74E2,2.6E1,1.3E1,2.3E1,2.5E2,1.2E1,2.74E2,7.45E2,5.1E1,8E0,3E1,9E0,2.718E3,3.7E1,1.399E3,9.5E1,9.1E1,8.5E1,4.57E2,3.09E2,6.4E1,4.5E1,2.68E2,1.311E3,7.6E2,1.9E1,2.4E2,5E0,5E0,5E0,9.58E2,2.9E1,9E0,1.5E1,4.66E2,8E0,2.1E1,5E0,5E0,8E0,5E0,1.8E1,1.3E2,1.2E2,2.69E2,5E0,4.51E2,2.94E2,1.2E1,3.9E1,2.6E1,2.692E3,1E1,2.7E1,5.3E1,1.346E3,6.3E1,3.2E1,7.3E1,1.8E1,5.7E1,2.8E1,4.19E2,3.8E1,4.7E1,2.62E2,5.9E1,5E0,3.8E1,7E0,1.21E2,1.47E2,9.97E2,3.14E2,5.64E2,1.96E2,1.1E1,8E0,8E0,2.32E2],"tree_param":{"num_deleted":"0","num_feature":"20","num_nodes":"113","size_leaf_vector":"1"}},{"base_weights":[6.2714242E-3,2.6953408E-1,-2.8599337E-1,2.0654742E-1,1.318217E0,-1.946489E-1,-8.5633177E-1,5.614804E-1,3.8543675E-2,2.5215085E0,5.753163E-1,-2.6378518E-1,4.5747945E-1,-5.81977E-1,-1.1089758E0,4.0706024E-1,1.2427514E0,2.4302764E-1,-3.3592469E-1,1.1696858E0,3.5283215E0,-2.9660067E-1,1.6983074E0,-8.120561E-1,-2.0036753E-1,3.2859218E-1,3.051017E0,-1.479092E0,-4.3047833E-1,-1.4964522E-1,-1.2387934E0,2.845905E-1,1.1061152E0,-5.1280737E-1,1.4749091E0,-1.664086E0,2.8495494E-1,-5.412587E-1,7.219973E-2,1.7812529E0,-3.9411396E-2,1.4647146E-1,4.162597E0,1.6565323E0,-1.3747338E0,-1.5865223E0,2.6258187E0,3.0460028E-2,-9.8016036E-1,1.02644734E-1,-2.966666E-1,7.861208E-1,-6.957985E-2,8.329907E-2,3.9421007E-1,-2.0218852E0,-7.210329E-1,-7.826564E-2,-9.195036E-1,8.4526163E-1,-7.277063E-1,-1.4651749E0,-1.0495481E0,4.3888833E-2,-2.4208196E-2,1.5779072E-3,1.5523885E-1,-1.1529825E-1,1.3949813E-1,-8.76761E-2,1.582675E-1,-2.096788E-1,-1.13020435E-1,2.2347096E-1,2.470535E-2,-7.609391E-2,2.5769746E-2,1.05986215E-1,-3.9341815E-2,3.1824127E-1,-3.0234444E-3,3.1118518E-1,4.4262934E-1,1.4489828E-1,2.0908509E-1,-1.0441607E-1,-2.605377E-1,-2.6286134E-1,-6.727439E-2,-2.2681165E-1,3.6959127E-1,-9.451883E-2,6.650575E-2,2.4120374E-2,-1.0760336E-1,4.1688955E-3,2.3376444E-1,-4.8505288E-2,-1.117587E-2,5.0328005E-2,2.4645253E-1,-4.4081677E-2,1.03864625E-1,-2.220817E-1,-1.2469528E-1,-1.1461792E-1,6.0372032E-2,3.1172914E-2,-1.3730417E-1,-1.5325549E-1,-2.0604007E-2,-6.9619626E-2,3.146801E-1,1.577071E-1,-1.2735796E-1,-9.788475E-2,-1.7690592E-1,2.5526587E-2,-1.271499E-1],"categories":[],"categories_nodes":[],"categories_segments":[],"categories_sizes":[],"default_left":[0,0,0,0,0,0,0,0,0,0,0,0,0,0,0,0,0,0,0,0,0,0,0,0,0,0,0,0,0,0,0,0,0,0,0,0,0,0,0,0,0,0,0,0,0,0,0,0,0,0,0,0,0,0,0,0,0,0,0,0,0,0,0,0,0,0,0,0,0,0,0,0,0,0,0,0,0,0,0,0,0,0,0,0,0,0,0,0,0,0,0,0,0,0,0,0,0,0,0,0,0,0,0,0,0,0,0,0,0,0,0,0,0,0,0,0,0,0,0],"id":11,"left_children":[1,3,5,7,9,11,13,15,17,19,21,23,25,27,29,31,33,35,37,39,41,43,45,47,49,51,53,55,57,59,61,63,65,67,69,71,73,75,77,79,-1,-1,81,83,85,87,89,91,93,95,97,99,101,-1,-1,103,105,107,109,111,113,115,117,-1,-1,-1,-1,-1,-1,-1,-1,-1,-1,-1,-1,-1,-1,-1,-1,-1,-1,-1,-1,-1,-1,-1,-1,-1,-1,-1,-1,-1,-1,-1,-1,-1,-1,-1,-1,-1,-1,-1,-1,-1,-1,-1,-1,-1,-1,-1,-1,-1,-1,-1,-1,-1,-1,-1,-1],"loss_changes":[8.342096E2,3.7649426E2,2.6750903E2,3.2090747E2,2.872874E2,1.9985045E2,4.849823E1,1.8138837E2,2.7987857E2,1.6328003E2,1.9731387E2,1.3912616E2,1.410639E2,4.58451E1,4.5644592E1,1.2048526E2,1.3077005E2,1.8949991E2,1.0822725E2,5.23459E1,8.5525696E1,2.4233136E2,2.7227698E2,5.880652E1,1.0484427E2,7.401778E1,3.6245193E1,1.870414E1,5.0566864E1,2.6495365E1,1.2342957E1,9.7786064E1,1.02158966E2,4.8018505E1,7.285486E1,9.411789E0,1.7044902E2,1.509635E2,1.9954208E2,9.908538E1,0E0,0E0,9.110718E-1,6.6622925E-1,2.7384048E1,1.7276428E1,3.697336E2,4.3968685E1,4.077481E1,1.1801928E2,9.4903564E1,8.8481964E1,9.01462E1,0E0,0E0,1.5471954E0,1.3082677E1,8.728042E1,5.348317E1,6.250213E1,3.8493896E1,1.969751E1,5.24534E1,0E0,0E0,0E0,0E0,0E0,0E0,0E0,0E0,0E0,0E0,0E0,0E0,0E0,0E0,0E0,0E0,0E0,0E0,0E0,0E0,0E0,0E0,0E0,0E0,0E0,0E0,0E0,0E0,0E0,0E0,0E0,0E0,0E0,0E0,0E0,0E0,0E0,0E0,0E0,0E0,0E0,0E0,0E0,0E0,0E0,0E0,0E0,0E0,0E0,0E0,0E0,0E0,0E0,0E0,0E0,0E0],"parents":[2147483647,0,0,1,1,2,2,3,3,4,4,5,5,6,6,7,7,8,8,9,9,10,10,11,11,12,12,13,13,14,14,15,15,16,16,17,17,18,18,19,19,20,20,21,21,22,22,23,23,24,24,25,25,26,26,27,27,28,28,29,29,30,30,31,31,32,32,33,33,34,34,35,35,36,36,37,37,38,38,39,39,42,42,43,43,44,44,45,45,46,46,47,47,48,48,49,49,50,50,51,51,52,52,55,55,56,56,57,57,58,58,59,59,60,60,61,61,62,62],"right_children":[2,4,6,8,10,12,14,16,18,20,22,24,26,28,30,32,34,36,38,40,42,44,46,48,50,52,54,56,58,60,62,64,66,68,70,72,74,76,78,80,-1,-1,82,84,86,88,90,92,94,96,98,100,102,-1,-1,104,106,108,110,112,114,116,118,-1,-1,-1,-1,-1,-1,-1,-1,-1,-1,-1,-1,-1,-1,-1,-1,-1,-1,-1,-1,-1,-1,-1,-1,-1,-1,-1,-1,-1,-1,-1,-1,-1,-1,-1,-1,-1,-1,-1,-1,-1,-1,-1,-1,-1,-1,-1,-1,-1,-1,-1,-1,-1,-1,-1,-1],"split_conditions":[5.8666668E1,2.25E2,3.529412E-1,2.1052632E-2,5.0847456E-2,5.7E1,1.22E2,7.3333335E0,1.24E2,1.923077E-2,6.6E0,6.1666668E1,7.2E0,7.5E1,1E1,1.3333334E-2,1.1E1,2E0,6.5E1,8.333334E-3,2.6666667E0,4E0,1.22E2,6.2E1,6.8E1,1.3043478E-1,6.2333332E1,6.5E1,4.642857E-1,1.24E2,7.9666664E1,5.7E1,4.2E0,9.4E0,1.16E2,1.22E2,2.2E0,5.2333332E1,3.6E0,8.6E0,-3.9411396E-2,1.4647146E-1,3.2E0,1.4137931E-1,1.15384616E-1,1.1340206E-1,6.9767445E-2,4E0,-5.4E0,7.3333335E0,2.8E1,1.125E-1,3E-1,8.329907E-2,3.9421007E-1,4.1860464E-1,1.2E2,9.9E1,3.5E1,9.2E1,3.8235295E-1,2.6E1,8.8E1,4.3888833E-2,-2.4208196E-2,1.5779072E-3,1.5523885E-1,-1.1529825E-1,1.3949813E-1,-8.76761E-2,1.582675E-1,-2.096788E-1,-1.13020435E-1,2.2347096E-1,2.470535E-2,-7.609391E-2,2.5769746E-2,1.05986215E-1,-3.9341815E-2,3.1824127E-1,-3.0234444E-3,3.1118518E-1,4.4262934E-1,1.4489828E-1,2.0908509E-1,-1.0441607E-1,-2.605377E-1,-2.6286134E-1,-6.727439E-2,-2.2681165E-1,3.6959127E-1,-9.451883E-2,6.650575E-2,2.4120374E-2,-1.0760336E-1,4.1688955E-3,2.3376444E-1,-4.8505288E-2,-1.117587E-2,5.0328005E-2,2.4645253E-1,-4.4081677E-2,1.03864625E-1,-2.220817E-1,-1.2469528E-1,-1.1461792E-1,6.0372032E-2,3.1172914E-2,-1.3730417E-1,-1.5325549E-1,-2.0604007E-2,-6.9619626E-2,3.146801E-1,1.577071E-1,-1.2735796E-1,-9.788475E-2,-1.7690592E-1,2.5526587E-2,-1.271499E-1],"split_indices":[0,17,16,5,5,17,11,13,11,16,13,0,13,1,17,16,17,13,17,5,13,13,11,1,0,5,0,0,16,11,0,1,13,13,11,11,13,0,13,13,0,0,13,5,5,5,5,13,2,13,17,5,5,0,0,5,11,1,17,1,16,17,1,0,0,0,0,0,0,0,0,0,0,0,0,0,0,0,0,0,0,0,0,0,0,0,0,0,0,0,0,0,0,0,0,0,0,0,0,0,0,0,0,0,0,0,0,0,0,0,0,0,0,0,0,0,0,0,0],"split_type":[0,0,0,0,0,0,0,0,0,0,0,0,0,0,0,0,0,0,0,0,0,0,0,0,0,0,0,0,0,0,0,0,0,0,0,0,0,0,0,0,0,0,0,0,0,0,0,0,0,0,0,0,0,0,0,0,0,0,0,0,0,0,0,0,0,0,0,0,0,0,0,0,0,0,0,0,0,0,0,0,0,0,0,0,0,0,0,0,0,0,0,0,0,0,0,0,0,0,0,0,0,0,0,0,0,0,0,0,0,0,0,0,0,0,0,0,0,0,0],"sum_hessian":[1.084E4,5.703E3,5.137E3,5.381E3,3.22E2,4.429E3,7.08E2,1.728E3,3.653E3,1.22E2,2E2,4.005E3,4.24E2,3.41E2,3.67E2,1.41E3,3.18E2,2.363E3,1.29E3,5.3E1,6.9E1,1.13E2,8.7E1,4.14E2,3.591E3,4.05E2,1.9E1,4.8E1,2.93E2,4.4E1,3.23E2,1.201E3,2.09E2,3.7E1,2.81E2,5E1,2.313E3,8.58E2,4.32E2,3.8E1,1.5E1,1.7E1,5.2E1,4E1,7.3E1,1.9E1,6.8E1,6.9E1,3.45E2,8.66E2,2.725E3,1.88E2,2.17E2,6E0,1.3E1,2.7E1,2.1E1,1.71E2,1.22E2,1.6E1,2.8E1,1.44E2,1.79E2,9.29E2,2.72E2,6.1E1,1.48E2,2.8E1,9E0,1.2E1,2.69E2,2.6E1,2.4E1,4.3E1,2.27E3,6.73E2,1.85E2,1.38E2,2.94E2,2.1E1,1.7E1,1.3E1,3.9E1,3E1,1E1,5.9E1,1.4E1,8E0,1.1E1,1.2E1,5.6E1,2.7E1,4.2E1,2.5E1,3.2E2,8.44E2,2.2E1,1.349E3,1.376E3,1.62E2,2.6E1,1.63E2,5.4E1,2E1,7E0,1.6E1,5E0,1.32E2,3.9E1,6.5E1,5.7E1,1E1,6E0,5E0,2.3E1,5.7E1,8.7E1,2.6E1,1.53E2],"tree_param":{"num_deleted":"0","num_feature":"20","num_nodes":"119","size_leaf_vector":"1"}},{"base_weights":[-1.5102641E-3,2.0395035E-1,-3.1781614E-1,5.9122896E-1,1.4701694E-2,1.8673107E-1,-3.9597833E-1,3.0697873E-1,8.2149774E-1,-6.143599E-1,5.916657E-2,-3.0727044E-1,4.652705E-1,-3.5874924E-1,-1.1406363E0,1.077623E0,-8.357422E-2,1.2443092E0,4.9017456E-1,-1.560928E-1,-9.2950916E-1,2.3301829E-2,6.3957524E-1,-4.105757E-1,3.2563207E-1,-9.1984635E-3,7.475374E-1,-2.1731347E-1,-5.316661E-1,-1.666243E-1,-1.0131491E0,-4.8340777E-1,1.4727049E0,2.8277674E-1,-1.1843727E0,1.2344513E-1,1.5888841E0,7.024034E-1,-1.5469232E0,2.4405779E-1,-1.1076722E0,6.754971E-1,-1.0633016E0,-2.1058943E0,3.257221E-2,1.8319756E0,3.5037935E-1,-5.931844E-1,1.1270592E0,1.9407828E-1,-1.4309642E-1,1.047145E0,1.187751E-1,-1.3015517E0,-1.6854566E-1,-2.5798902E-1,-7.6121974E-1,-1.106596E0,1.147693E-1,2.331193E-2,-1.5535633E-1,2.2269514E-1,1.16959944E-1,-4.0015724E-2,1.5358253E-1,5.2685697E-2,-1.8675056E-1,-1.4531597E-1,9.978127E-2,1.9502081E-1,6.326743E-2,1.3045802E-2,1.4121436E-1,-2.2549896E-1,9.164271E-2,-5.6952126E-2,1.3898487E-1,-1.587523E-1,5.0827194E-2,1.0903113E-1,3.2389905E-2,-1.1555058E-1,4.4453178E-2,-2.8607E-1,-2.4530077E-2,3.987189E-3,-2.553147E-1,1.9463958E-1,7.2570466E-2,1.5486367E-1,-2.7410497E-3,-1.23852514E-1,4.5569986E-4,2.0022057E-1,-3.595085E-2,8.850839E-2,-3.3632785E-2,7.7477E-2,2.6003394E-1,-1.0220343E-1,2.8727239E-2,1.2046092E-1,-1.9554226E-1,-2.0968938E-2,1.8226983E-1,-3.0969828E-2,2.227466E-1,-1.376734E-1,-6.244263E-2,2.9687896E-2,-1.16329566E-1,-1.4034042E-1,1.8668434E-1],"categories":[],"categories_nodes":[],"categories_segments":[],"categories_sizes":[],"default_left":[0,0,0,0,0,0,0,0,0,0,0,0,0,0,0,0,0,0,0,0,0,0,0,0,0,0,0,0,0,0,0,0,0,0,0,0,0,0,0,0,0,0,0,0,0,0,0,0,0,0,0,0,0,0,0,0,0,0,0,0,0,0,0,0,0,0,0,0,0,0,0,0,0,0,0,0,0,0,0,0,0,0,0,0,0,0,0,0,0,0,0,0,0,0,0,0,0,0,0,0,0,0,0,0,0,0,0,0,0,0,0,0,0],"id":12,"left_children":[1,3,5,7,9,11,13,15,17,19,21,23,25,27,29,31,33,35,37,39,41,43,45,47,-1,49,51,53,55,-1,57,59,61,63,65,67,69,71,73,75,77,79,81,83,85,87,89,91,93,-1,95,97,99,101,103,105,107,109,111,-1,-1,-1,-1,-1,-1,-1,-1,-1,-1,-1,-1,-1,-1,-1,-1,-1,-1,-1,-1,-1,-1,-1,-1,-1,-1,-1,-1,-1,-1,-1,-1,-1,-1,-1,-1,-1,-1,-1,-1,-1,-1,-1,-1,-1,-1,-1,-1,-1,-1,-1,-1,-1,-1],"loss_changes":[7.10323E2,4.8562387E2,1.6980872E2,1.4211017E2,1.245639E2,7.967512E1,1.0291412E2,2.9354306E2,1.6763483E2,4.2315132E1,8.65597E1,7.8277756E1,4.9559822E1,8.672992E1,1.0172287E1,2.0300092E2,2.616594E2,2.0334271E2,2.9290997E2,4.6344116E1,3.8082626E1,7.7403885E1,8.280874E1,5.79488E1,0E0,3.657041E1,4.358023E1,1.0315306E2,1.0013281E2,0E0,1.5410065E1,5.173746E1,5.7292847E1,4.1736456E2,1.9036147E2,1.737665E2,1.380033E2,2.4824652E2,1.1369635E2,8.0960014E1,2.8721733E1,1.6887188E0,2.2897247E1,2.3172844E1,7.375171E1,4.536728E0,8.8769585E1,7.059733E1,2.9341028E1,0E0,2.6324335E1,6.440439E1,1.4902573E1,1.400068E2,1.5374988E2,9.451022E1,7.222452E1,1.1008606E1,3.453936E1,0E0,0E0,0E0,0E0,0E0,0E0,0E0,0E0,0E0,0E0,0E0,0E0,0E0,0E0,0E0,0E0,0E0,0E0,0E0,0E0,0E0,0E0,0E0,0E0,0E0,0E0,0E0,0E0,0E0,0E0,0E0,0E0,0E0,0E0,0E0,0E0,0E0,0E0,0E0,0E0,0E0,0E0,0E0,0E0,0E0,0E0,0E0,0E0,0E0,0E0,0E0,0E0,0E0,0E0],"parents":[2147483647,0,0,1,1,2,2,3,3,4,4,5,5,6,6,7,7,8,8,9,9,10,10,11,11,12,12,13,13,14,14,15,15,16,16,17,17,18,18,19,19,20,20,21,21,22,22,23,23,25,25,26,26,27,27,28,28,30,30,31,31,32,32,33,33,34,34,35,35,36,36,37,37,38,38,39,39,40,40,41,41,42,42,43,43,44,44,45,45,46,46,47,47,48,48,50,50,51,51,52,52,53,53,54,54,55,55,56,56,57,57,58,58],"right_children":[2,4,6,8,10,12,14,16,18,20,22,24,26,28,30,32,34,36,38,40,42,44,46,48,-1,50,52,54,56,-1,58,60,62,64,66,68,70,72,74,76,78,80,82,84,86,88,90,92,94,-1,96,98,100,102,104,106,108,110,112,-1,-1,-1,-1,-1,-1,-1,-1,-1,-1,-1,-1,-1,-1,-1,-1,-1,-1,-1,-1,-1,-1,-1,-1,-1,-1,-1,-1,-1,-1,-1,-1,-1,-1,-1,-1,-1,-1,-1,-1,-1,-1,-1,-1,-1,-1,-1,-1,-1,-1,-1,-1,-1,-1],"split_conditions":[1.4516129E-1,1.4E1,5.7142857E-2,5.5E0,2.2E0,3.2E0,5.833333E-1,3.25E0,1.8181818E-2,6.521739E-2,7.5E0,5.5555556E-2,1.8699187E-1,7.9E1,5.7666668E1,2E0,9.2307694E-2,1.21E2,1.27E2,8.2E1,-2.9E0,1.7E1,1.19E2,1.25E2,3.2563207E-1,-6.1E0,2.8E-1,8.75E-2,1.22E2,-1.666243E-1,5.2E0,4.411765E-2,5.7636886E-3,6.153846E-2,1.24E2,6.3333335E0,8.8E0,9.677419E-2,9E0,7.4E1,2.4E0,7.4666664E1,1.26E2,1.21E2,5.185185E-1,8E-1,7.6666665E0,8.4E1,7.7E1,1.9407828E-1,3.6666667E0,8.4333336E1,2.9411766E-1,-1.6E0,9.4E0,7.3333335E0,1.971831E-1,5.9666668E1,2.1212122E-1,2.331193E-2,-1.5535633E-1,2.2269514E-1,1.16959944E-1,-4.0015724E-2,1.5358253E-1,5.2685697E-2,-1.8675056E-1,-1.4531597E-1,9.978127E-2,1.9502081E-1,6.326743E-2,1.3045802E-2,1.4121436E-1,-2.2549896E-1,9.164271E-2,-5.6952126E-2,1.3898487E-1,-1.587523E-1,5.0827194E-2,1.0903113E-1,3.2389905E-2,-1.1555058E-1,4.4453178E-2,-2.8607E-1,-2.4530077E-2,3.987189E-3,-2.553147E-1,1.9463958E-1,7.2570466E-2,1.5486367E-1,-2.7410497E-3,-1.23852514E-1,4.5569986E-4,2.0022057E-1,-3.595085E-2,8.850839E-2,-3.3632785E-2,7.7477E-2,2.6003394E-1,-1.0220343E-1,2.8727239E-2,1.2046092E-1,-1.9554226E-1,-2.0968938E-2,1.8226983E-1,-3.0969828E-2,2.227466E-1,-1.376734E-1,-6.244263E-2,2.9687896E-2,-1.16329566E-1,-1.4034042E-1,1.8668434E-1],"split_indices":[5,1,4,13,13,13,4,13,5,4,13,4,5,1,0,13,4,11,11,1,2,1,11,11,0,2,5,4,11,0,13,5,4,4,11,13,13,5,13,1,2,0,11,11,4,14,13,1,0,0,13,0,5,2,13,13,5,0,5,0,0,0,0,0,0,0,0,0,0,0,0,0,0,0,0,0,0,0,0,0,0,0,0,0,0,0,0,0,0,0,0,0,0,0,0,0,0,0,0,0,0,0,0,0,0,0,0,0,0,0,0,0,0],"split_type":[0,0,0,0,0,0,0,0,0,0,0,0,0,0,0,0,0,0,0,0,0,0,0,0,0,0,0,0,0,0,0,0,0,0,0,0,0,0,0,0,0,0,0,0,0,0,0,0,0,0,0,0,0,0,0,0,0,0,0,0,0,0,0,0,0,0,0,0,0,0,0,0,0,0,0,0,0,0,0,0,0,0,0,0,0,0,0,0,0,0,0,0,0,0,0,0,0,0,0,0,0,0,0,0,0,0,0,0,0,0,0,0,0],"sum_hessian":[1.0928E4,6.625E3,4.303E3,2.174E3,4.451E3,5.77E2,3.726E3,9.74E2,1.2E3,2.93E2,4.158E3,2.08E2,3.69E2,3.55E3,1.76E2,3.27E2,6.47E2,5.26E2,6.74E2,1.2E2,1.73E2,3.917E3,2.41E2,2.03E2,5E0,1.38E2,2.31E2,1.954E3,1.596E3,3.2E1,1.44E2,6.6E1,2.61E2,4.86E2,1.61E2,1.24E2,4.02E2,6.11E2,6.3E1,8.5E1,3.5E1,1.3E1,1.6E2,1.6E1,3.901E3,4.6E1,1.95E2,1.82E2,2.1E1,8E0,1.3E2,1.56E2,7.5E1,8.3E1,1.871E3,7.29E2,8.67E2,1.33E2,1.1E1,4E1,2.6E1,7.3E1,1.88E2,3.15E2,1.71E2,4.6E1,1.15E2,4.4E1,8E1,2.91E2,1.11E2,3.39E2,2.72E2,4.9E1,1.4E1,5E1,3.5E1,2.7E1,8E0,5E0,8E0,1.51E2,9E0,1.1E1,5E0,3.891E3,1E1,4.1E1,5E0,4.6E1,1.49E2,8.7E1,9.5E1,1.3E1,8E0,2E1,1.1E2,1.34E2,2.2E1,9E0,6.6E1,1.7E1,6.6E1,1.834E3,3.7E1,7.15E2,1.4E1,1.56E2,7.11E2,5E0,1.28E2,6E0,5E0],"tree_param":{"num_deleted":"0","num_feature":"20","num_nodes":"113","size_leaf_vector":"1"}},{"base_weights":[-1.0809629E-2,8.820079E-2,-5.282528E-1,4.0503415E-1,-3.307266E-2,-3.1435335E-1,-7.1084297E-1,8.346934E-1,1.992222E-1,1.14502035E-1,-1.8337598E-1,-5.1065946E-1,3.6102688E-1,-5.3159213E-1,-9.7997326E-1,1.011628E-1,1.076666E0,2.5336927E-1,-1.0604057E0,6.740954E-2,1.1111068E0,-2.2906692E-1,4.4242945E-1,-1.4681888E0,-3.8790813E-1,1.1440762E0,-1.1856352E0,-6.3601756E-1,2.2286732E0,-1.2490244E0,-6.341663E-1,-3.737371E-1,1.0223802E0,9.651476E-1,2.9066677E0,-9.916353E-2,4.974209E-1,-1.2444273E0,1.1405661E-1,2.3262863E-1,-4.8842773E-2,1.2707834E0,-1.5494348E-1,4.5542175E-1,-2.7295628E-1,8.949665E-1,-1.192039E0,-2.0971838E-1,-1.1620672E0,-2.9629776E-1,-1.255209E0,7.0619184E-1,3.3419773E-1,-1.6514562E0,3.840346E-1,-3.8664263E-2,-9.1003203E-1,3.4178886E-1,-1.3140126E-1,-1.387269E0,-2.1200429E-1,1.3941695E-1,-1.0256985E0,-5.996054E-2,3.3151063E-1,1.8745254E-1,-5.86462E-2,1.149343E-1,-4.0379222E-2,3.1727818E-1,1.3889568E-1,-5.3364493E-2,2.2949426E-2,1.8600057E-1,2.4122667E-2,-1.3520788E-1,5.7431897E-3,3.5455603E-2,-8.171596E-3,6.4089536E-3,-3.113989E-2,9.81124E-2,2.8193137E-1,-1.2865327E-1,5.3115327E-2,-2.2940217E-2,-8.342643E-2,7.0523135E-2,4.3372485E-1,-2.0784695E-1,-6.5617055E-2,-3.596678E-2,-1.7796788E-1,-3.9935964E-3,-7.371356E-2,-1.6222969E-1,-9.8357104E-2,-2.7576068E-2,1.237924E-1,-1.8481457E-1,3.3394021E-3,-6.60056E-2,1.1534345E-1,-1.9003948E-2,3.5998645E-1,2.6475484E-2,-1.01976514E-1,-1.4782898E-1,-6.227919E-3,1.3227622E-1,-8.4706366E-2,-3.70534E-2,1.4693247E-1,-1.4381836E-1,-9.01547E-2],"categories":[],"categories_nodes":[],"categories_segments":[],"categories_sizes":[],"default_left":[0,0,0,0,0,0,0,0,0,0,0,0,0,0,0,0,0,0,0,0,0,0,0,0,0,0,0,0,0,0,0,0,0,0,0,0,0,0,0,0,0,0,0,0,0,0,0,0,0,0,0,0,0,0,0,0,0,0,0,0,0,0,0,0,0,0,0,0,0,0,0,0,0,0,0,0,0,0,0,0,0,0,0,0,0,0,0,0,0,0,0,0,0,0,0,0,0,0,0,0,0,0,0,0,0,0,0,0,0,0,0,0,0,0,0],"id":13,"left_children":[1,3,5,7,9,11,13,15,17,19,21,23,25,27,29,31,33,35,37,39,41,43,45,47,49,51,53,55,57,59,61,63,65,67,69,71,73,75,-1,77,79,81,-1,83,85,87,89,-1,91,93,95,97,-1,99,101,103,105,-1,-1,107,109,111,113,-1,-1,-1,-1,-1,-1,-1,-1,-1,-1,-1,-1,-1,-1,-1,-1,-1,-1,-1,-1,-1,-1,-1,-1,-1,-1,-1,-1,-1,-1,-1,-1,-1,-1,-1,-1,-1,-1,-1,-1,-1,-1,-1,-1,-1,-1,-1,-1,-1,-1,-1,-1],"loss_changes":[5.5981036E2,3.5243353E2,6.83197E1,2.2435489E2,1.4716954E2,1.0757517E2,4.5115814E1,1.4579144E2,1.1744514E2,1.5705545E2,9.408864E1,7.3244354E1,2.2299008E2,1.6571536E2,3.4283905E1,9.006674E1,1.2331531E2,1.4183698E2,3.0176224E1,6.143567E1,6.611781E1,9.217229E1,1.6675012E2,1.1233902E1,4.3963287E1,1.1505597E2,4.5967712E1,8.999074E1,9.296447E1,2.9955383E1,5.072441E1,1.1530197E2,9.7067024E1,1.4772113E2,9.729065E0,9.650955E1,3.395614E2,9.327347E0,0E0,5.0659218E1,5.570467E1,6.1376022E1,0E0,2.5088707E1,7.021677E1,1.11890686E2,2.1911667E1,0E0,2.4138466E1,5.715563E1,3.6892471E0,5.412135E1,0E0,1.5968521E1,1.281118E1,9.652038E1,4.887021E1,0E0,0E0,2.2339752E1,2.646183E1,3.9201126E1,4.3877945E0,0E0,0E0,0E0,0E0,0E0,0E0,0E0,0E0,0E0,0E0,0E0,0E0,0E0,0E0,0E0,0E0,0E0,0E0,0E0,0E0,0E0,0E0,0E0,0E0,0E0,0E0,0E0,0E0,0E0,0E0,0E0,0E0,0E0,0E0,0E0,0E0,0E0,0E0,0E0,0E0,0E0,0E0,0E0,0E0,0E0,0E0,0E0,0E0,0E0,0E0,0E0,0E0],"parents":[2147483647,0,0,1,1,2,2,3,3,4,4,5,5,6,6,7,7,8,8,9,9,10,10,11,11,12,12,13,13,14,14,15,15,16,16,17,17,18,18,19,19,20,20,21,21,22,22,23,23,24,24,25,25,26,26,27,27,28,28,29,29,30,30,31,31,32,32,33,33,34,34,35,35,36,36,37,37,39,39,40,40,41,41,43,43,44,44,45,45,46,46,48,48,49,49,50,50,51,51,53,53,54,54,55,55,56,56,59,59,60,60,61,61,62,62],"right_children":[2,4,6,8,10,12,14,16,18,20,22,24,26,28,30,32,34,36,38,40,42,44,46,48,50,52,54,56,58,60,62,64,66,68,70,72,74,76,-1,78,80,82,-1,84,86,88,90,-1,92,94,96,98,-1,100,102,104,106,-1,-1,108,110,112,114,-1,-1,-1,-1,-1,-1,-1,-1,-1,-1,-1,-1,-1,-1,-1,-1,-1,-1,-1,-1,-1,-1,-1,-1,-1,-1,-1,-1,-1,-1,-1,-1,-1,-1,-1,-1,-1,-1,-1,-1,-1,-1,-1,-1,-1,-1,-1,-1,-1,-1,-1,-1],"split_conditions":[2.6666668E-1,1.4E1,1.22E2,2E-2,9.677419E-2,1.21E2,4E-1,1.21E2,2.0512821E-1,2.1052632E-1,2.735849E-1,3.4E1,7.9E1,4.25E-1,8.1E1,7.8125E-3,1.5566038E-1,8.3333336E-2,2.962963E-1,1.21E2,9.2E1,4.1666668E-2,8.7E1,3.1578946E-1,5.185185E-1,2.5E-1,4.0555555E-1,2.5E-1,1E1,2.5E-1,8.8666664E1,1E1,6.0606062E-2,1.0091743E-1,2.6041666E-1,5.479452E-2,9.392265E-2,2.9411766E-1,1.1405661E-1,2.0833334E-2,6.9333336E1,9.3E1,-1.5494348E-1,1.0169491E-1,3.4375E-1,9.7E1,8.9333336E1,-2.0971838E-1,3.6363637E-1,8.5E1,6E-1,2.967033E-1,3.3419773E-1,2.5E-1,8.8666664E1,2.4390244E-1,2.4705882E-1,3.4178886E-1,-1.3140126E-1,1.34E2,4.2857143E-1,9.2E1,2.638889E-1,-5.996054E-2,3.3151063E-1,1.8745254E-1,-5.86462E-2,1.149343E-1,-4.0379222E-2,3.1727818E-1,1.3889568E-1,-5.3364493E-2,2.2949426E-2,1.8600057E-1,2.4122667E-2,-1.3520788E-1,5.7431897E-3,3.5455603E-2,-8.171596E-3,6.4089536E-3,-3.113989E-2,9.81124E-2,2.8193137E-1,-1.2865327E-1,5.3115327E-2,-2.2940217E-2,-8.342643E-2,7.0523135E-2,4.3372485E-1,-2.0784695E-1,-6.5617055E-2,-3.596678E-2,-1.7796788E-1,-3.9935964E-3,-7.371356E-2,-1.6222969E-1,-9.8357104E-2,-2.7576068E-2,1.237924E-1,-1.8481457E-1,3.3394021E-3,-6.60056E-2,1.1534345E-1,-1.9003948E-2,3.5998645E-1,2.6475484E-2,-1.01976514E-1,-1.4782898E-1,-6.227919E-3,1.3227622E-1,-8.4706366E-2,-3.70534E-2,1.4693247E-1,-1.4381836E-1,-9.01547E-2],"split_indices":[16,1,11,5,4,11,16,11,16,16,5,1,0,5,0,16,16,16,4,11,0,5,0,16,4,14,5,4,0,14,0,0,16,16,4,4,16,5,0,4,0,1,0,4,4,1,0,0,4,1,4,4,0,14,0,4,5,0,0,11,16,1,4,0,0,0,0,0,0,0,0,0,0,0,0,0,0,0,0,0,0,0,0,0,0,0,0,0,0,0,0,0,0,0,0,0,0,0,0,0,0,0,0,0,0,0,0,0,0,0,0,0,0,0,0],"split_type":[0,0,0,0,0,0,0,0,0,0,0,0,0,0,0,0,0,0,0,0,0,0,0,0,0,0,0,0,0,0,0,0,0,0,0,0,0,0,0,0,0,0,0,0,0,0,0,0,0,0,0,0,0,0,0,0,0,0,0,0,0,0,0,0,0,0,0,0,0,0,0,0,0,0,0,0,0,0,0,0,0,0,0,0,0,0,0,0,0,0,0,0,0,0,0,0,0,0,0,0,0,0,0,0,0,0,0,0,0,0,0,0,0,0,0],"sum_hessian":[1.0925E4,9.171E3,1.754E3,2.538E3,6.633E3,8.09E2,9.45E2,8.21E2,1.717E3,3.347E3,3.286E3,6.27E2,1.82E2,5.69E2,3.76E2,2.04E2,6.17E2,1.647E3,7E1,3.197E3,1.5E2,3.063E3,2.23E2,7E1,5.57E2,1.21E2,6.1E1,5.49E2,2E1,2.1E2,1.66E2,1.35E2,6.9E1,5.83E2,3.4E1,6.74E2,9.73E2,6.5E1,5E0,1.32E3,1.877E3,1.42E2,8E0,1.84E2,2.879E3,1.75E2,4.8E1,2.1E1,4.9E1,5.05E2,5.2E1,1.02E2,1.9E1,4.7E1,1.4E1,1.73E2,3.76E2,1.5E1,5E0,1.85E2,2.5E1,5.6E1,1.1E2,1.28E2,7E0,4.5E1,2.4E1,5.14E2,6.9E1,2.8E1,6E0,2.9E2,3.84E2,1.53E2,8.2E2,6E1,5E0,9.51E2,3.69E2,1.313E3,5.64E2,1.21E2,2.1E1,7E0,1.77E2,2.673E3,2.06E2,1.67E2,8E0,1.7E1,3.1E1,2.2E1,2.7E1,3.2E2,1.85E2,2E1,3.2E1,3.6E1,6.6E1,4.2E1,5E0,6E0,8E0,1.67E2,6E0,3.2E1,3.44E2,1.73E2,1.2E1,7E0,1.8E1,4.1E1,1.5E1,2.3E1,8.7E1],"tree_param":{"num_deleted":"0","num_feature":"20","num_nodes":"115","size_leaf_vector":"1"}},{"base_weights":[2.5667453E-2,-8.71116E-2,4.6696302E-1,1.5440315E-1,-2.816108E-1,5.3727233E-1,-1.2417457E0,3.163171E-2,8.19024E-1,-1.800584E-1,-5.205653E-1,4.658156E-1,1.5506717E0,-1.9078326E0,-6.469267E-1,-1.09803446E-1,1.6239902E-1,7.041919E-1,3.3447453E-1,-1.5023635E-1,-1.0480831E0,-9.845412E-1,-3.8207647E-1,6.1682165E-1,-2.1395466E-1,1.9747807E0,-2.115222E-1,-2.4326053E-1,-1.6842215E0,1.5762929E0,-1.2734659E0,-6.445608E-2,-7.6270694E-1,1.5384342E-2,6.0340685E-1,9.635462E-1,-5.630163E-1,-1.2810965E-1,-1.0298309E0,6.4892894E-1,-1.3799462E0,-3.853691E-1,-1.2756056E0,-2.993587E-1,-1.176152E0,4.1211486E-1,1.2896533E0,-3.6865327E-1,1.8923167E0,1.4777076E0,3.2763404E-1,-8.865567E-2,-1.7991017E-1,2.3573191E-1,5.3255122E-2,-6.3605124E-1,-2.1101578E-1,-7.929351E-3,1.7461354E-1,-1.1448896E-1,8.614865E-2,-5.6913514E-2,1.5695047E-2,7.5290084E-2,-4.1596904E-2,6.406825E-2,1.7862882E-1,-1.0522107E-1,2.0404427E-1,-1.1266246E-2,-1.4052285E-1,2.4525259E-2,-1.2808958E-1,3.230099E-2,1.0566914E-1,-8.267067E-2,-1.9639914E-1,-7.788823E-2,3.703761E-2,-5.9758764E-2,-1.4407761E-1,-2.60884E-2,-2.1773465E-1,-3.8242128E-2,-1.409491E-1,9.5223255E-2,1.3831479E-2,2.3154204E-1,7.532414E-2,5.6314035E-3,-1.0523031E-1,3.5973784E-1,2.9566988E-2,2.4187489E-1,-9.121986E-2,8.903577E-3,-1.7738572E-1],"categories":[],"categories_nodes":[],"categories_segments":[],"categories_sizes":[],"default_left":[0,0,0,0,0,0,0,0,0,0,0,0,0,0,0,0,0,0,0,0,0,0,0,0,0,0,0,0,0,0,0,0,0,0,0,0,0,0,0,0,0,0,0,0,0,0,0,0,0,0,0,0,0,0,0,0,0,0,0,0,0,0,0,0,0,0,0,0,0,0,0,0,0,0,0,0,0,0,0,0,0,0,0,0,0,0,0,0,0,0,0,0,0,0,0,0,0],"id":14,"left_children":[1,3,5,7,9,11,13,15,17,19,21,23,25,27,29,31,33,35,-1,37,39,41,43,45,47,49,-1,-1,51,53,55,57,59,61,63,65,67,69,71,73,75,77,79,81,83,85,87,89,91,93,-1,-1,-1,-1,-1,95,-1,-1,-1,-1,-1,-1,-1,-1,-1,-1,-1,-1,-1,-1,-1,-1,-1,-1,-1,-1,-1,-1,-1,-1,-1,-1,-1,-1,-1,-1,-1,-1,-1,-1,-1,-1,-1,-1,-1,-1,-1],"loss_changes":[5.425714E2,4.0792236E2,2.6725363E2,3.160788E2,1.16627655E2,1.5366467E2,3.363147E1,6.051528E1,1.7282513E2,8.7260475E1,9.1766205E1,2.0471219E2,2.2184045E2,7.141113E-1,6.8868195E1,4.649375E1,1.1020959E2,1.9083426E2,0E0,6.3432686E1,6.3971184E1,5.6885223E1,7.2294586E1,2.2411133E2,1.18976524E2,7.667676E1,0E0,0E0,1.3373413E0,7.711691E0,1.8923985E1,3.965616E1,6.4301636E1,1.05675964E2,6.507918E1,1.26625275E2,1.2823312E2,6.271445E1,2.5924438E1,2.183732E0,2.8749344E1,3.270461E1,2.388852E1,7.190376E1,1.8722656E1,1.8501938E2,2.0734473E2,9.854855E1,6.6995895E1,2.1136337E2,0E0,0E0,0E0,0E0,0E0,1.9133127E1,0E0,0E0,0E0,0E0,0E0,0E0,0E0,0E0,0E0,0E0,0E0,0E0,0E0,0E0,0E0,0E0,0E0,0E0,0E0,0E0,0E0,0E0,0E0,0E0,0E0,0E0,0E0,0E0,0E0,0E0,0E0,0E0,0E0,0E0,0E0,0E0,0E0,0E0,0E0,0E0,0E0],"parents":[2147483647,0,0,1,1,2,2,3,3,4,4,5,5,6,6,7,7,8,8,9,9,10,10,11,11,12,12,13,13,14,14,15,15,16,16,17,17,19,19,20,20,21,21,22,22,23,23,24,24,25,25,28,28,29,29,30,30,31,31,32,32,33,33,34,34,35,35,36,36,37,37,38,38,39,39,40,40,41,41,42,42,43,43,44,44,45,45,46,46,47,47,48,48,49,49,55,55],"right_children":[2,4,6,8,10,12,14,16,18,20,22,24,26,28,30,32,34,36,-1,38,40,42,44,46,48,50,-1,-1,52,54,56,58,60,62,64,66,68,70,72,74,76,78,80,82,84,86,88,90,92,94,-1,-1,-1,-1,-1,96,-1,-1,-1,-1,-1,-1,-1,-1,-1,-1,-1,-1,-1,-1,-1,-1,-1,-1,-1,-1,-1,-1,-1,-1,-1,-1,-1,-1,-1,-1,-1,-1,-1,-1,-1,-1,-1,-1,-1,-1,-1],"split_conditions":[6.2E0,9.4736844E-2,3.7288135E-1,6.5E1,2.5925925E-1,2.91E2,1.2E2,2.8E1,6E0,6E0,1.8E1,1.11E2,1.2E1,7E0,7.8125E-3,7.692308E-2,2.5E-1,5.3333335E0,3.3447453E-1,6.666667E-1,1.2E2,8E0,9.4666664E1,4.7E1,1.04E1,8.064516E-2,-2.115222E-1,-2.4326053E-1,7.2E0,2E-1,7E0,7.5E-2,5.3333335E0,2.7333334E1,5.3333335E0,1.24E2,5.8E1,6.363636E-1,1.2E1,1.7391305E-1,3E1,6E0,2.2E0,8.4E1,1.4E0,1E1,1.21E2,1.1111111E-1,1.21E2,7.4074075E-2,3.2763404E-1,-8.865567E-2,-1.7991017E-1,2.3573191E-1,5.3255122E-2,3.068182E-1,-2.1101578E-1,-7.929351E-3,1.7461354E-1,-1.1448896E-1,8.614865E-2,-5.6913514E-2,1.5695047E-2,7.5290084E-2,-4.1596904E-2,6.406825E-2,1.7862882E-1,-1.0522107E-1,2.0404427E-1,-1.1266246E-2,-1.4052285E-1,2.4525259E-2,-1.2808958E-1,3.230099E-2,1.0566914E-1,-8.267067E-2,-1.9639914E-1,-7.788823E-2,3.703761E-2,-5.9758764E-2,-1.4407761E-1,-2.60884E-2,-2.1773465E-1,-3.8242128E-2,-1.409491E-1,9.5223255E-2,1.3831479E-2,2.3154204E-1,7.532414E-2,5.6314035E-3,-1.0523031E-1,3.5973784E-1,2.9566988E-2,2.4187489E-1,-9.121986E-2,8.903577E-3,-1.7738572E-1],"split_indices":[13,4,4,17,16,17,11,17,13,13,17,17,13,13,16,4,14,13,0,14,11,17,0,17,13,4,0,0,13,14,13,4,13,0,13,11,0,4,17,4,17,17,13,17,13,0,11,16,11,16,0,0,0,0,0,16,0,0,0,0,0,0,0,0,0,0,0,0,0,0,0,0,0,0,0,0,0,0,0,0,0,0,0,0,0,0,0,0,0,0,0,0,0,0,0,0,0],"split_type":[0,0,0,0,0,0,0,0,0,0,0,0,0,0,0,0,0,0,0,0,0,0,0,0,0,0,0,0,0,0,0,0,0,0,0,0,0,0,0,0,0,0,0,0,0,0,0,0,0,0,0,0,0,0,0,0,0,0,0,0,0,0,0,0,0,0,0,0,0,0,0,0,0,0,0,0,0,0,0,0,0,0,0,0,0,0,0,0,0,0,0,0,0,0,0,0,0],"sum_hessian":[1.09E4,8.682E3,2.218E3,3.873E3,4.809E3,2.131E3,8.7E1,3.27E3,6.03E2,3.376E3,1.433E3,1.992E3,1.39E2,4E1,4.7E1,1.571E3,1.699E3,5.78E2,2.5E1,3.265E3,1.11E2,3.28E2,1.105E3,1.63E3,3.62E2,1.25E2,1.4E1,9E0,3.1E1,1E1,3.7E1,1.47E3,1.01E2,1.275E3,4.24E2,4.8E2,9.8E1,3.186E3,7.9E1,1.8E1,9.3E1,1.08E2,2.2E2,1.002E3,1.03E2,1.251E3,3.79E2,3.38E2,2.4E1,9.2E1,3.3E1,5E0,2.6E1,5E0,5E0,2.2E1,1.5E1,1.459E3,1.1E1,8.2E1,1.9E1,2.48E2,1.027E3,3.7E2,5.4E1,3.46E2,1.34E2,8.3E1,1.5E1,3.149E3,3.7E1,1.3E1,6.6E1,1.1E1,7E0,4.9E1,4.4E1,7.1E1,3.7E1,4.4E1,1.76E2,9.83E2,1.9E1,2.4E1,7.9E1,4.2E2,8.31E2,1.29E2,2.5E2,2.09E2,1.29E2,1.1E1,1.3E1,6.6E1,2.6E1,1.4E1,8E0],"tree_param":{"num_deleted":"0","num_feature":"20","num_nodes":"97","size_leaf_vector":"1"}},{"base_weights":[-2.739654E-5,1.8409428E-1,-2.0179437E-1,1.3915396E-1,9.4184804E-1,-1.180902E-1,-4.893235E-1,1.1031271E-1,1.399078E0,1.4918858E0,-3.847513E-1,-6.897987E-1,-5.1516872E-2,-1.1076555E0,-4.234043E-1,-9.957806E-1,1.377221E-1,7.498361E-1,2.7803414E0,1.1083623E0,3.0443716E0,1.6285114E0,-1.3080302E0,1.5373804E-1,-8.5365695E-1,-2.8643945E-1,1.2928917E-1,7.9755925E-2,-1.2422657E0,-8.919734E-2,-5.8990806E-1,-1.0766045E0,5.435715E-2,1.9419195E-1,-3.6989424E-1,1.1113129E0,-1.2820629E0,3.830602E-1,1.2576315E0,1.5903363E0,-3.9432144E-1,3.2893534E0,1.2795602E-1,2.4638736E-1,1.2127491E0,3.090764E-1,-1.7261091E0,7.9185677E-1,-8.682191E-1,2.3171766E-1,-9.784354E-1,-2.6990438E-1,-2.4052422E-1,4.2671984E-1,1.1858095E-2,-1.1161152E-1,-1.5069889E0,-1.9453552E-1,1.3629191E0,-1.1332239E0,-4.76715E-1,-1.470675E-1,-6.778813E-2,1.0769611E-1,1.3641107E-2,-4.249315E-2,3.1574485E-1,1.3342862E-1,-1.526612E-1,-1.7798907E-1,-7.484342E-2,2.5356844E-2,2.1219578E-1,1.8751116E-1,-1.8679884E-1,-1.8768845E-1,2.6662245E-2,2.5302368E-1,3.783389E-1,4.7423724E-2,1.9081484E-1,-1.06235884E-1,-2.4980128E-1,-3.3869725E-2,1.4096071E-1,-1.3167171E-1,1.7507894E-2,1.2204806E-1,-5.7974365E-2,-1.03516616E-1,2.2519173E-2,-4.193085E-2,-6.644083E-4,2.141549E-2,1.08717814E-1,-2.589334E-3,1.9434993E-1,-1.291385E-1,5.70517E-2,3.1245345E-2,-1.7000797E-1,1.9689051E-2,-6.655594E-2,2.4855058E-1,3.8353544E-2,4.644577E-2,-1.2972145E-1,-2.7734319E-2,-7.435613E-2],"categories":[],"categories_nodes":[],"categories_segments":[],"categories_sizes":[],"default_left":[0,0,0,0,0,0,0,0,0,0,0,0,0,0,0,0,0,0,0,0,0,0,0,0,0,0,0,0,0,0,0,0,0,0,0,0,0,0,0,0,0,0,0,0,0,0,0,0,0,0,0,0,0,0,0,0,0,0,0,0,0,0,0,0,0,0,0,0,0,0,0,0,0,0,0,0,0,0,0,0,0,0,0,0,0,0,0,0,0,0,0,0,0,0,0,0,0,0,0,0,0,0,0,0,0,0,0,0,0],"id":15,"left_children":[1,3,5,7,9,11,13,15,17,19,21,23,25,27,29,31,33,35,37,39,41,43,45,47,49,51,53,-1,55,57,59,61,-1,63,65,67,69,-1,71,73,75,77,-1,-1,79,-1,81,83,85,87,89,91,-1,93,95,97,99,101,103,105,107,-1,-1,-1,-1,-1,-1,-1,-1,-1,-1,-1,-1,-1,-1,-1,-1,-1,-1,-1,-1,-1,-1,-1,-1,-1,-1,-1,-1,-1,-1,-1,-1,-1,-1,-1,-1,-1,-1,-1,-1,-1,-1,-1,-1,-1,-1,-1,-1],"loss_changes":[4.0377982E2,1.9339612E2,1.2475568E2,1.9483426E2,2.3261215E2,1.528917E2,4.7179382E1,1.592123E2,1.0552809E2,1.30594E2,1.7685762E2,5.8045593E1,1.5294855E2,2.9714447E1,5.882161E1,1.6386086E1,1.4686533E2,6.238697E1,5.5953674E1,1.324414E2,1.4814301E1,7.4312973E0,1.2487278E2,4.5684475E1,4.7763123E1,5.421501E1,7.107262E1,0E0,3.1259369E1,5.426118E1,4.2878494E1,1.8015198E1,0E0,2.3494516E2,1.0093307E2,4.3798195E1,2.1213856E0,0E0,1.4215187E1,1.3941135E2,4.4595516E1,4.6782837E0,0E0,0E0,1.0393421E1,0E0,2.8087296E1,3.050863E1,1.2864292E1,3.039425E1,2.1742157E1,6.1158745E1,0E0,8.063198E1,1.0651677E2,1.7636656E1,3.0393204E1,6.0973473E1,2.5433361E1,3.2305054E1,3.096994E1,0E0,0E0,0E0,0E0,0E0,0E0,0E0,0E0,0E0,0E0,0E0,0E0,0E0,0E0,0E0,0E0,0E0,0E0,0E0,0E0,0E0,0E0,0E0,0E0,0E0,0E0,0E0,0E0,0E0,0E0,0E0,0E0,0E0,0E0,0E0,0E0,0E0,0E0,0E0,0E0,0E0,0E0,0E0,0E0,0E0,0E0,0E0,0E0],"parents":[2147483647,0,0,1,1,2,2,3,3,4,4,5,5,6,6,7,7,8,8,9,9,10,10,11,11,12,12,13,13,14,14,15,15,16,16,17,17,18,18,19,19,20,20,21,21,22,22,23,23,24,24,25,25,26,26,28,28,29,29,30,30,31,31,33,33,34,34,35,35,36,36,38,38,39,39,40,40,41,41,44,44,46,46,47,47,48,48,49,49,50,50,51,51,53,53,54,54,55,55,56,56,57,57,58,58,59,59,60,60],"right_children":[2,4,6,8,10,12,14,16,18,20,22,24,26,28,30,32,34,36,38,40,42,44,46,48,50,52,54,-1,56,58,60,62,-1,64,66,68,70,-1,72,74,76,78,-1,-1,80,-1,82,84,86,88,90,92,-1,94,96,98,100,102,104,106,108,-1,-1,-1,-1,-1,-1,-1,-1,-1,-1,-1,-1,-1,-1,-1,-1,-1,-1,-1,-1,-1,-1,-1,-1,-1,-1,-1,-1,-1,-1,-1,-1,-1,-1,-1,-1,-1,-1,-1,-1,-1,-1,-1,-1,-1,-1,-1,-1],"split_conditions":[5.8666668E1,2.25E2,2.7419356E-1,1.04E1,1.02564104E-1,6.1666668E1,2.9213482E-1,2E0,1.04477614E-1,1.0309278E-1,4E0,6.2E1,2.7E1,1.6E0,3.529412E-1,6.6E1,2.638889E-1,8.522727E-2,1.4634146E-1,7.272727E-2,1.2230216E-1,8.522727E-2,7.8125E-3,5.9333332E1,-5.4E0,8.4E0,1.6260162E-2,7.9755925E-2,2.3387097E-1,8.1E0,-3E0,4.5E1,5.435715E-2,2.6666667E0,9.2E0,1.34E1,1.4507772E-1,3.830602E-1,5.7636886E-3,1.2E1,7.692308E-2,1.0169491E-1,1.2795602E-1,2.4638736E-1,2.2E-1,3.090764E-1,1.14285715E-1,7.936508E-2,8.75E-2,4E0,6.9E1,4.2E0,-2.4052422E-1,5.2E1,7.3333335E0,1.5E1,-4.6E0,7E-1,8.8E1,6.2666668E1,5E-1,-1.470675E-1,-6.778813E-2,1.0769611E-1,1.3641107E-2,-4.249315E-2,3.1574485E-1,1.3342862E-1,-1.526612E-1,-1.7798907E-1,-7.484342E-2,2.5356844E-2,2.1219578E-1,